tree
version=v4
num_class=1
num_tree_per_iteration=1
label_index=0
max_feature_idx=58
objective=regression
feature_names=body_pct upper_wick lower_wick body_abs close_pos range_pct ret_1 ret_3 ret_5 ret_10 log_ret_1 atr_pct vol_std_10 rsi_14 ema_9_20_cross ema_20_50_cross ema_9_slope ema_20_slope ema_50_slope price_vs_ema20 price_vs_ema50 vol_ratio vol_z last_3_body_sum last_3_range_sum bullish_engulf_2 hammer_like shooting_star breakout_up breakout_down dist_to_high_20 dist_to_low_20 trend_50 vol_regime trending hour_sin hour_cos dow btc_ret_1m btc_ret_5m btc_ret_15m btc_vol_z btc_trend_50 eth_corr_30 btc_alt_spread_15m btc_volatility_regime vol_delta_3 wick_imbalance_3 body_consistency_5 range_expansion_3 close_persistence_5 vol_acceleration atr_percentile_50 trend_strength_50 regime_vol_trend hour_quantile alt_lead_5m alt_lag_signal momentum_dispersion
feature_infos=[-1:1] [0:1] [0:1] [0:1] [0:1] [3.5523978203499951e-10:14.94151782989502] [-0.081354014575481415:0.10566037893295288] [-0.12028378248214722:0.15172955393791199] [-0.12141706794500351:0.19095119833946228] [-0.11168999969959259:0.19588875770568848] [-0.084854446351528168:0.10044278204441071] [0.035796310752630234:7.4612197875976562] [0.00013639323879033327:0.084639087319374084] [0:100] [-5.2814755439758301:3.7171785831451416] [-7.4484667778015137:5.2080979347229004] [-0.052079878747463226:0.061724595725536346] [-0.029666638001799583:0.035524226725101471] [-0.015524021349847317:0.016978325322270393] [-11.828472137451172:10.700970649719238] [-14.991259574890137:13.682291030883789] [4.1317915020044893e-05:17.267847061157227] [-2.7977676391601562:4.2482171058654785] [-3:3] [5.5316576208497281e-08:38.694877624511719] [0:1] [0:1] [0:1] [0:1] [0:1] [-20.512821197509766:0] [0:41.0662841796875] [-1:1] [0:3] [0:1] [-1:1] [-1:1] [0:6] [-0.042923089116811752:0.040709160268306732] [-0.060104489326477051:0.066570594906806946] [-0.069432497024536133:0.08350730687379837] [-2.7219569683074951:4.2482171058654785] [-1:1] [-0.56746095418930054:1] [-13.297250747680664:22.984323501586914] [0:2] [-0.99987536668777466:5] [-3:3] [0:1] [5.8771327360318537e-08:5.206688404083252] [0:1] [-16.174613952636719:16.965797424316406] [0.019999999552965164:1] [6.594117613056838e-12:20] [-3:3] [0:3] [-9.9243640899658203:17.611577987670898] [0:1] [0.00013637279334943742:0.079624474048614502]
tree_sizes=2967 3026 3022 3009 3016 3030 3032 3030 3040 3034 3028 3043 3041 3040 3036 3039 3058 3038 3037 3050 3027 3052 3016 3044 3042 3042 3070 3048 3058 3065 3072 3045 3048 3032 3038 3061 3053 3055 3073 3029 3031 3059 3051 3060 3090 3054 3069 3061 3054 3028 3076 3071 3088 3077 3062 3088 3039 3092 3058 3063 3057 3080 3083 3063 3077 3059 3056 3067 3072 3050 3062 3074 3044 3068 3063 3092 3065 3093 3071 3065 3082 3097 3079 3076 3083 3041 3075 3078 3079 3081 3055 3122 3023 3093 3086 3060 3065 3095 3049 3066 3058 3084 3045 3022 3094 3071 3066 3052 3045 3085 3043 3025 3037 3050 3040 3061 3035 3003 3031 3053 3044 3035 3064 3028 3069 3015 3051 3060 3054 3019 3008 3064 3046 3076 3071 3043 3043 3032 3036 3023 3023 3040 3059 3019 3068 3042 3012 3012 3012 3047 3069 3022 3059 3039 3052 3002 3043 3064 3009 3032 3029 3017 3043 3003 3003 3087 3052 3050 3069 3111 3001 3040 3025 3024 3010 2993 2996 3064 3060 3037 3068 3037 2995 3092 2978 3052 3034 3036 3054 3005 3037 3031 3038 3045 3045 3036 2983 3003 3031 3046 3064 3022 3027 3067 3062 3057 3053 3019 2993 3041 3048 3008 3050 3020 3050 3044 3017 3043 3056 3067 2995 3048 3017 2988 3049 3016 2985 2983 2990 3049 3039 3010 2992 3045 3028 3032 3014 3024 3009 3084 2988 2994 3017 2980 3017 3046 2992 3025 3062 3047 3029 3074 3064 3026 3052 3073 3026 3030 3080 3033 3042 3029 3040 3059 3047 3040 3008 3044 3033 3038 3027 3025 3036 3019 3007 3083 3044 3029 3043 3034 3025 3052 3012 3056 3061 3006 2974 3057 2997 3026 3044 3030 3029 3078 2979 3006 3018 2997

Tree=0
num_leaves=31
num_cat=0
split_feature=11 11 11 11 11 24 40 11 5 24 11 5 11 24 24 11 31 20 43 30 40 24 5 52 5 36 40 52 20 40
split_gain=10340 2938.05 2835.72 697.207 502.487 493.466 440.504 422.049 141.516 134.732 124.824 104.242 94.923 90.3269 73.6931 55.6144 54.3458 48.9474 40.8563 46.0621 59.9592 38.0662 36.7285 36.7065 35.2971 48.671 32.7924 45.7263 29.8967 29.7816
threshold=0.70274436473846447 0.37847529351711279 1.4242023825645449 2.2009946107864384 0.22739812731742862 3.1177980899810795 -0.010278194677084683 0.52226135134696972 2.7198326587677006 2.2913430929183964 0.99510070681571972 0.83423128724098217 0.2985415011644364 1.3927199840545657 3.8739856481552128 0.16443457454442981 0.38531589508056646 -1.7618861794471739 0.90825068950653087 -0.88233202695846547 -0.00045532551303040231 1.6744076013565066 2.2017407417297368 0.48193547129631048 0.76925584673881542 -0.98296290636062611 -0.01850803196430206 0.79500001668930065 -0.70147308707237233 0.0021272674202919011
decision_type=2 2 2 2 2 2 2 2 2 2 2 2 2 2 2 2 2 2 2 2 2 2 2 2 2 2 2 2 2 2
left_child=1 4 5 8 15 9 -5 13 14 23 -7 21 -6 -3 -4 -1 -12 -11 19 20 26 -9 -8 29 -15 -26 -16 -28 -14 -2
right_child=2 7 3 6 12 10 22 11 -10 17 16 -13 28 24 18 -17 -18 -19 -20 -21 -22 -23 -24 -25 25 -27 27 -29 -30 -31
leaf_value=-0.42570254010783276 -0.45707835910018269 -0.43891575396855714 -0.47178435972529398 -0.56517569101124554 -0.43249647258283952 -0.45955123104078288 -0.49479586999704073 -0.44399954777841311 -0.51131621493150836 -0.46257510136361196 -0.48415710701951487 -0.45168357311609897 -0.43897173237884923 -0.44182773005410614 -0.48173440577348886 -0.42925841453350971 -0.46857654016455297 -0.45579007917966796 -0.47455798610780914 -0.50700102603152186 -0.47597510938453613 -0.44699583232897788 -0.51483247175204871 -0.44910024736555315 -0.46640456101097577 -0.4453652204919159 -0.50919067384274808 -0.4866205078925907 -0.43526558821380262 -0.44972064186062216
leaf_weight=18115 3349 43639 1424 439 41740 4878 494 23514 431 3376 614 7660 6214 20269 486 28068 6668 12609 697 296 931 19306 460 10946 294 4045 463 458 43862 2341
leaf_count=16329 2419 31514 1023 250 32787 3475 355 16527 298 2315 421 5336 4888 14609 280 23651 4661 9165 380 211 646 13615 307 7874 199 2810 331 386 32380 1744
internal_value=-0.441185 -0.437079 -0.461655 -0.492305 -0.432118 -0.457151 -0.523714 -0.442846 -0.483854 -0.453946 -0.465748 -0.446312 -0.434257 -0.440282 -0.481351 -0.427863 -0.469896 -0.457224 -0.48543 -0.488293 -0.485897 -0.445351 -0.504524 -0.450795 -0.442704 -0.446796 -0.492433 -0.498028 -0.435725 -0.454053
internal_weight=0 256726 51360 6579 137999 44781 1393 118727 5186 32621 12160 50480 91816 68247 4755 46183 7282 15985 3331 2634 2338 42820 954 16636 24608 4339 1407 921 50076 5690
internal_count=231186 194645 36541 4467 110035 32074 912 84610 3555 23517 8557 35478 70055 49132 3257 39980 5082 11480 2234 1854 1643 30142 662 12037 17618 3009 997 717 37268 4163
is_linear=0
shrinkage=1


Tree=1
num_leaves=31
num_cat=0
split_feature=11 11 11 11 11 11 40 11 5 5 22 19 5 11 11 20 30 39 11 44 11 19 19 41 36 40 5 5 53 19
split_gain=9332.5 2651.61 2559.96 629.404 453.879 442.326 397.658 380.899 127.761 95.21 89.0566 83.3924 71.6381 68.8377 67.2239 56.7823 55.0052 50.999 49.5463 46.879 46.2043 41.723 40.0586 39.6624 38.0526 35.3592 34.8118 33.1565 31.4965 29.3579
threshold=0.70274436473846447 0.37847529351711279 1.4242023825645449 2.2009946107864384 0.24015899747610095 0.99510070681571972 -0.010278194677084683 0.52226135134696972 2.7198326587677006 0.93580728769302379 0.58049350976943981 -1.5333145856857298 0.63089111447334301 0.30994220077991491 0.1672799810767174 -2.4771442413330074 -0.88233202695846547 -0.0040118794422596684 0.83492973446846019 -2.6602531671524043 1.1416402459144595 -0.85065576434135426 -0.22464529424905774 0.80239844322204601 -0.98296290636062611 -0.0052386317402124396 1.4033919572830202 2.2017407417297368 3.2552759647369389 -0.39333868026733393
decision_type=2 2 2 2 2 2 2 2 2 2 2 2 2 2 2 2 2 2 2 2 2 2 2 2 2 2 2 2 2 2
left_child=1 4 5 8 14 11 -5 12 15 21 20 -2 22 29 -1 17 -17 -4 -13 -12 -7 -9 -3 25 -14 -22 -19 -8 -23 -6
right_child=2 7 3 6 13 10 27 9 -10 -11 19 18 24 -15 -16 16 -18 26 -20 -21 23 28 -24 -25 -26 -27 -28 -29 -30 -31
leaf_value=0.01461275350537284 -0.019605860667830786 -0.00046818539471232368 -0.037411346769658849 -0.11780558027729222 0.0038713696774318688 -0.017329122785438522 -0.050936075261596485 -0.0080363295593757541 -0.066633103777335403 -0.011344843474338763 -0.048104826144760388 -0.009431862154278289 -0.015918621524162898 0.0049413362175695537 0.010904525620406096 -0.032040519455620912 -0.050309589455519582 -0.045718493167396845 -0.01370776656225187 -0.02833549400962997 -0.028901323641611493 -0.0040497462689830233 0.0023836981069028616 -0.035027071321301478 -0.0023358244627760924 -0.019286278446166739 -0.069178011468417011 -0.069973418789758171 0.00046145453368925466 0.0082309648112202701
leaf_weight=19190 3214 17640 711 439 4303 5087 494 5973 431 5104 343 17308 545 42894 33736 2904 484 346 11149 2492 1397 35054 40773 712 9289 3079 310 460 4349 37876
leaf_count=17262 2214 12724 447 250 3528 3594 355 4050 298 3522 282 12593 382 31797 28197 2004 342 244 8050 1717 907 25281 29439 509 6587 2208 220 307 2625 29251
internal_value=0 0.00390051 -0.0194477 -0.0485691 0.0086138 -0.0151684 -0.0784114 -0.00157788 -0.0405396 -0.00487076 -0.0228922 -0.0119705 0.000857787 0.00635194 0.0122493 -0.0381609 -0.0346645 -0.046795 -0.0111075 -0.0307435 -0.0207231 -0.00414231 0.00152247 -0.024047 -0.00309012 -0.022293 -0.056893 -0.0601792 -0.00355184 0.00778631
internal_weight=0 256726 51360 6579 137999 44781 1393 118727 5186 50480 13110 31671 68247 85073 52926 4755 3388 1367 28457 2835 10275 45376 58413 5188 9834 4476 656 954 39403 42179
internal_count=231186 194645 36541 4467 110035 32074 912 84610 3555 35478 9217 22857 49132 64576 45459 3257 2346 911 20643 1999 7218 31956 42163 3624 6969 3115 464 662 27906 32779
is_linear=0
shrinkage=0.05


Tree=2
num_leaves=31
num_cat=0
split_feature=11 11 11 11 24 11 40 11 22 24 11 5 24 24 24 37 44 11 20 41 20 20 39 52 21 24 41 5 40 41
split_gain=8423.14 2393.09 2310.93 568.216 416.493 411.523 358.979 343.762 121.476 115.506 100.258 86.814 82.3032 77.8532 61.0395 52.2698 51.8391 42.4675 41.4252 40.0965 36.8568 36.0544 46.8317 33.5741 33.2701 31.3196 30.7416 29.9319 26.743 26.7194
threshold=0.70274436473846447 0.37847529351711279 1.4242023825645449 2.2009946107864384 3.1177980899810795 0.22531434893608096 -0.010278194677084683 0.52226135134696972 1.5050850510597231 2.2913430929183964 0.99510070681571972 0.81092271208763134 0.91025933623313915 1.3927199840545657 3.8739856481552128 4.5000000000000009 -2.6602531671524043 0.16443457454442981 -1.7618861794471739 0.6016884744167329 -0.66877129673957814 -2.4771442413330074 -0.0032985073048621412 0.48193547129631048 1.3777351975440981 1.6744076013565066 3.641909241676331 2.2017407417297368 0.0021272674202919011 2.4391120672225957
decision_type=2 2 2 2 2 2 2 2 2 2 2 2 2 2 2 2 2 2 2 2 2 2 2 2 2 2 2 2 2 2
left_child=1 5 4 8 9 17 -5 13 14 23 -6 25 -7 -3 -4 16 24 -1 -11 21 -14 22 -16 28 -12 -9 -15 -8 -2 -18
right_child=2 7 3 6 10 12 27 11 -10 18 15 -13 20 26 19 -17 29 -19 -20 -21 -22 -23 -24 -25 -26 -27 -28 -29 -30 -31
leaf_value=0.013977449468942749 -0.014530548319519374 0.0020830092857746624 -0.027261947115917604 -0.11192868736403233 -0.016754301339959154 0.007566102464644381 -0.048394416429742119 -0.00248056673681315 -0.062070939474190095 -0.019423319702224127 -0.031426606489598261 -0.0092531288248837908 0.00095139227861689769 -0.0012076122423078674 -0.035117004943599678 -0.016022928560806168 -0.025516834404163649 0.010844731212765191 -0.013181618263074233 -0.051150152663085237 0.0052016552756834426 -0.033100829519027056 -0.059478347336340089 -0.0069274625989800779 -0.055901455768454539 -0.0052283283593746559 -0.015234942803973384 -0.066482337404518754 -0.0075589426916238866 -0.040959213852312382
leaf_weight=18115 3349 43639 1408 439 4878 53260 494 23417 496 3376 325 8445 6012 24212 458 1112 5297 26946 12609 631 33666 1837 356 10946 250 18618 396 460 2341 298
leaf_count=16329 2419 31514 1014 250 3475 41180 355 16456 342 2315 258 5902 4767 17350 283 832 3577 22736 9165 452 25023 1211 253 7874 210 13120 268 307 1744 205
internal_value=0 0.00370548 -0.0184761 -0.0461447 -0.0144102 0.00818313 -0.0744994 -0.001499 -0.0385155 -0.0114655 -0.0223081 -0.00462725 0.00628179 0.000814886 -0.0360117 -0.0260257 -0.0278255 0.0121044 -0.014501 -0.0397559 0.0045577 -0.0370256 -0.0458313 -0.00854813 -0.0421464 -0.00369769 -0.00143395 -0.0571765 -0.0116641 -0.0263465
internal_weight=0 256726 51360 6579 44781 137999 1393 118727 5186 32621 12160 50480 92938 68247 4690 7282 6170 45061 15985 3282 39678 2651 814 16636 575 42035 24608 954 5690 5595
internal_count=231186 194645 36541 4467 32074 110035 912 84610 3555 23517 8557 35478 70970 49132 3213 5082 4250 39065 11480 2199 29790 1747 536 12037 468 29576 17618 662 4163 3782
is_linear=0
shrinkage=0.05


Tree=3
num_leaves=31
num_cat=0
split_feature=11 11 11 11 24 11 20 24 11 22 11 24 24 37 21 11 24 24 56 43 11 41 41 14 20 20 37 40 11 23
split_gain=7602.41 2159.78 2086.09 512.982 377.415 373.126 331.088 312.089 133.441 109.668 88.1056 63.7635 63.4015 60.3618 62.4914 59.683 56.995 55.1045 47.7604 45.0368 44.0016 43.4009 38.5421 33.641 31.3667 30.2087 28.905 33.4353 27.9294 27.2213
threshold=0.70274436473846447 0.37847529351711279 1.4242023825645449 2.2009946107864384 2.7647337913513188 0.24445165693759921 -4.766206979751586 1.5776543617248537 0.99510070681571972 1.5050850510597231 0.48449724912643438 2.4120306968688969 2.1620607376098637 4.5000000000000009 2.3063169717788701 0.17546736449003222 0.91025933623313915 3.8739856481552128 1.9464010000228884 0.90825068950653087 0.5362677574157716 3.641909241676331 0.6016884744167329 -0.15345185250043866 -0.65304899215698231 -1.8348224163055418 1.5000000000000002 -0.0045456609223037949 1.2300519347190859 -1.0706654787063596
decision_type=2 2 2 2 2 2 2 2 2 2 2 2 2 2 2 2 2 2 2 2 2 2 2 2 2 2 2 2 2 2
left_child=1 5 4 9 12 15 -5 10 -6 17 -3 20 -2 14 23 -1 -7 -4 -8 22 -9 -13 26 28 -18 -14 -19 -28 29 -10
right_child=2 7 3 6 8 16 18 11 13 -11 -12 21 25 -15 -16 -17 24 19 -20 -21 -22 -23 -24 -25 -26 -27 27 -29 -30 -31
leaf_value=0.012948738298221497 -0.0075468900169441376 0.0020144277291367324 -0.025899817259410315 -0.11385362603891212 -0.014767874450204733 0.0068722976852661046 -0.04991193283978821 -0.0017659372262494831 -0.036958805949674274 -0.058973636483526243 -0.0015314577445616024 -0.0081219578013698359 -0.017506963218779644 -0.01400279672658708 -0.039995726163569875 0.009599630033101084 0.00094948380309608062 -0.029334985014418165 -0.073593659507574877 -0.026489541514377036 -0.0052269453966478276 -0.026662237791406425 -0.052748813718961389 -0.02088505842811984 0.0048605002218610497 -0.01128562289905608 -0.05237002064304596 -0.035816151986391993 -0.034041571419457815 -0.021382320058470426
leaf_weight=22369 13625 43968 1408 338 8495 44288 747 15209 342 496 29120 6916 2383 1446 650 32882 6092 702 308 704 23184 330 543 4225 32368 10869 494 839 1133 1613
leaf_count=19998 9849 31895 1014 200 6070 33882 508 10830 233 342 20551 4746 1652 1081 476 27332 4812 492 204 385 16379 209 403 2941 24011 7933 328 591 780 1059
internal_value=0 0.00352021 -0.017553 -0.0438412 -0.01369 0.00777398 -0.0707826 -0.00142407 -0.0193141 -0.0365923 0.000601661 -0.00466809 -0.0099429 -0.0234166 -0.0251241 0.0109558 0.0056494 -0.0342133 -0.0568888 -0.0377709 -0.00385598 -0.00896989 -0.0408401 -0.023797 0.00424104 -0.0124056 -0.0376381 -0.0419856 -0.0277731 -0.0241247
internal_weight=0 256726 51360 6579 44781 137999 1393 118727 17904 5186 73088 45639 26877 9409 7963 55251 82748 4690 1055 3282 38393 7246 2578 7313 38460 13252 2035 1333 3088 1955
internal_count=231186 194645 36541 4467 32074 110035 912 84610 12640 3555 52446 32164 19434 6570 5489 47330 62705 3213 712 2199 27209 4955 1814 5013 28823 9585 1411 919 2072 1292
is_linear=0
shrinkage=0.05


Tree=4
num_leaves=31
num_cat=0
split_feature=11 11 11 11 24 11 11 19 11 5 5 5 41 24 21 11 24 24 52 37 11 14 24 44 41 43 56 52 37 19
split_gain=6864.61 2057.29 1741.89 536.823 369.724 294.297 272.701 224.942 138.886 127.232 81.5208 75.4374 55.9347 55.2307 52.6282 47.4701 46.7084 44.4235 40.5589 36.7303 35.895 34.6884 32.7361 32.6068 31.289 28.6151 27.6094 26.3846 26.2336 28.1888
threshold=0.66537967324256908 1.3443224430084231 0.35570435225963598 2.2009946107864384 2.5156432390213017 0.48449724912643438 0.22531434893608096 -2.1576772928237911 0.97373002767562877 2.2017407417297368 0.77948457002639782 2.7198326587677006 0.57687070965766918 1.2588201165199282 1.8501498699188235 0.29272834956645971 1.7005800604820254 3.8739856481552128 0.48193547129631048 1.0000000180025095e-35 0.15187887102365497 -0.20942112803459165 1.2898941040039065 -2.0592000484466548 3.462723016738892 0.92209622263908397 1.9464010000228884 0.85500001907348644 4.5000000000000009 -1.93716824054718
decision_type=2 2 2 2 2 2 2 2 2 2 2 2 2 2 2 2 2 2 2 2 2 2 2 2 2 2 2 2 2 2
left_child=2 4 6 9 16 13 20 -5 23 17 22 -9 28 -4 -11 -8 -2 27 21 -14 -1 -18 -7 -6 26 -19 -25 -3 29 -10
right_child=1 3 5 7 8 10 15 11 12 14 -12 -13 19 -15 -16 -17 18 25 -20 -21 -22 -23 -24 24 -26 -27 -28 -29 -30 -31
leaf_value=0.013045722791027581 -0.0040804200896005114 -0.02923733601701119 0.0029366998163542018 -0.10378063156670676 -0.02082302801551841 -1.6031255828913791e-05 0.0072997916745854118 -0.046699483591429371 -0.030759951285737115 -0.041157875332992706 -0.0074987995626424366 -0.075204938310503622 -0.038658717533744426 1.1276703874493821e-05 -0.06602127534969808 0.0048516405119356032 -0.016780860455318018 -0.035576926588806915 -0.0072574895755916601 -0.023926768744201937 0.0099907649257651426 -0.0095707127501713021 -0.0030514522954579828 -0.010969313703275085 -0.027830815060045939 -0.022766436004950541 -0.021110181970305193 -0.017884232317201137 -0.011996986137249425 -0.018779539304431141
leaf_weight=13940 6518 1205 39253 324 1164 11649 39241 719 538 614 9035 350 533 27393 334 39992 2400 2918 13598 2116 31121 5493 37399 10612 305 521 717 902 1306 5876
leaf_count=12679 4618 843 28494 205 880 8216 30930 490 368 404 6317 217 362 19744 251 30042 1697 2024 9828 1497 26386 4065 26380 7475 211 285 575 658 971 4074
internal_value=0 -0.0153183 0.00364145 -0.0390874 -0.0116545 -0.000533024 0.00783051 -0.067252 -0.0163274 -0.0330365 -0.0031346 -0.056094 -0.0206291 0.0017343 -0.0499781 0.00606419 -0.0077889 -0.0301321 -0.00891341 -0.0269044 0.0109361 -0.0117649 -0.00233055 -0.0128408 -0.0120405 -0.0336434 -0.0116129 -0.0243879 -0.0184726 -0.0197891
internal_weight=0 59063 249023 7887 51176 124729 124294 1393 23167 6494 58083 1069 10369 66646 948 79233 28009 5546 21491 2649 45061 7893 49048 12798 11634 3439 11329 2107 7720 6414
internal_count=231186 41998 189188 5377 36621 89151 100037 912 16413 4465 40913 707 7272 48238 655 60972 20208 3810 15590 1859 39065 5762 34596 9141 8261 2309 8050 1501 5413 4442
is_linear=0
shrinkage=0.05


Tree=5
num_leaves=31
num_cat=0
split_feature=24 33 24 24 5 33 24 40 24 18 30 35 20 37 44 39 39 7 44 5 12 12 53 53 6 24 56 47 7 38
split_gain=6219.76 2132.14 1150.73 534.481 478.663 261.22 200.142 169.854 124.879 115.206 88.9367 78.616 56.1789 44.3581 54.7983 42.9362 42.7152 40.4257 40.1522 39.4025 38.8045 38.3246 36.2963 33.0549 32.0583 31.644 31.0869 29.5446 26.233 24.6005
threshold=1.801410496234894 1.5000000000000002 0.96407073736190807 2.7647337913513188 2.7198326587677006 1.0000000180025095e-35 0.62266936898231517 -0.0098802489228546602 3.7301241159439091 -0.0031091569690033789 -1.9940091371536253 0.60355338454246532 -0.63689547777175892 3.5000000000000004 -1.6533939242362974 -0.0074843133334070435 -0.0079342890530824644 -0.0023374827578663822 -1.6533939242362974 1.2950186729431155 0.0063406268600374469 0.0021204354707151656 2.7591844797134404 1.0064767003059389 -0.0024782846448943015 2.4120306968688969 2.3072586059570317 0.25773356854915624 0.021877870894968513 -0.0027042040601372714
decision_type=2 2 2 2 2 2 2 2 2 2 2 2 2 2 2 2 2 2 2 2 2 2 2 2 2 2 2 2 2 2
left_child=2 3 6 10 9 12 22 -6 18 11 -2 15 -4 14 27 -3 -11 -17 -5 -18 -20 -8 -1 -14 -21 -12 -15 29 -16 -10
right_child=1 4 5 8 7 -7 21 -9 13 16 25 -13 23 26 28 17 19 -19 20 24 -22 -23 -24 -25 -26 -27 -28 -29 -30 -31
leaf_value=0.0086455099998719951 -0.010194355213182148 -0.025086496087171881 -0.00051113335325690364 -0.02018381498548907 -0.1053823257070113 -0.0027149002932282361 0.0066009646795626353 -0.059399696994829554 -0.052368907805688626 -0.015994812081740341 -0.0048082149264795544 -0.067582685085562852 0.0023007676199639508 -0.013836999267844702 -0.019931265636919174 -0.060805685218314046 -0.02534459774342647 -0.036691637028103012 -0.010562457330135853 -0.029568031511809586 -0.016188394387144187 0.0040129328314535894 0.011433276398623187 0.0051224946289498514 -0.043579830949979616 -0.0087331945862995138 -0.030526084806549354 -0.019955397889813181 -0.030195494666002184 -0.033277762444146597
leaf_weight=22807 16276 306 15012 2217 327 40655 48120 536 261 417 24531 383 49230 1982 3214 322 1009 394 7442 703 5225 20365 23976 13152 1013 6497 325 252 778 509
leaf_count=20229 11359 184 11376 1647 187 28698 37461 379 185 237 17662 215 36247 1343 2142 238 737 297 5136 498 3689 15494 19639 9277 712 4691 257 208 535 381
internal_value=0 -0.0125586 0.00400008 -0.0102051 -0.0427905 0.000530238 0.00755359 -0.0769248 -0.0166044 -0.0362965 -0.00720087 -0.0482125 0.00223492 -0.021952 -0.0245947 -0.0408944 -0.0309544 -0.0476059 -0.0139728 -0.0332369 -0.0128842 0.00583145 0.0100744 0.00289575 -0.0378601 -0.00563033 -0.0162003 -0.0349375 -0.0219387 -0.0398084
internal_weight=0 74919 233317 69509 5410 118049 115268 863 22205 4547 47304 1405 77394 7321 5014 1022 3142 716 14884 2725 12667 68485 46783 62382 1716 31028 2307 1022 3992 770
internal_count=231340 52919 178421 49235 3684 85598 92823 566 15523 3118 33712 934 56900 5051 3451 719 2184 535 10472 1947 8825 52955 39868 45524 1210 22353 1600 774 2677 566
is_linear=0
shrinkage=0.05


Tree=6
num_leaves=31
num_cat=0
split_feature=11 11 11 5 11 11 24 22 18 24 11 19 11 11 11 31 5 52 5 37 13 40 39 19 35 30 45 43 52 5
split_gain=5712.29 1596.63 1561.29 430.215 364.909 327.493 187.655 157.734 111.31 88.9384 85.0663 66.6106 61.4353 52.5833 51.4811 50.1731 46.7774 38.65 37.4256 37.0913 46.56 56.7822 37.0461 30.4311 30.3376 28.9257 28.5936 28.3749 24.9133 24.3481
threshold=0.69643104076385509 1.509479343891144 0.39581194519996649 2.7198326587677006 0.99510070681571972 0.25035695731639868 1.6744076013565066 1.3661313652992251 -0.0031091569690033789 3.1177980899810795 2.2009946107864384 -0.98354512453079213 0.46666093170642858 0.17546736449003222 0.30994220077991491 9.1824288368225115 0.93580728769302379 0.47111110389232641 1.7708408832550051 4.5000000000000009 27.487905502319339 -0.012388464529067276 -0.0042449564207345239 -0.72801515460014332 -0.91597560048103321 -0.7666017711162566 1.0000000180025095e-35 0.56335511803627025 0.4316666722297669 0.4538626521825791
decision_type=2 2 2 2 2 2 2 2 2 2 2 2 2 2 2 2 2 2 2 2 2 2 2 2 2 2 2 2 2 2
left_child=2 4 5 8 11 13 12 -5 10 -6 22 -2 -4 -1 -7 26 23 24 -19 20 21 -11 -3 -8 -13 -22 -10 -21 -14 -16
right_child=1 3 6 7 9 14 16 -9 15 19 -12 17 28 -15 29 -17 -18 18 -20 27 25 -23 -24 -25 -26 -27 -28 -29 -30 -31
leaf_value=0.011221198384366065 -0.013784526718305984 -0.029587616901992343 0.0016340045209974619 -0.056612447907185462 -0.01414488112107256 0.0059421087744531446 -0.0066155281227551392 -0.10105064912974847 -0.033470248396359606 -0.025200263485749021 -0.069254126446609943 -0.0052494222380583735 -0.0027410679034692697 0.008130660629609588 0.0040301969681136958 -0.041462089516306533 -0.0083046373555448732 -0.0063792227550233428 -0.020959319070546139 -0.023836104512477089 -0.020466107139466165 -0.052193639726878294 -0.048679527030734304 -0.0027569897610143423 -0.012364949669197765 -0.029650887282945418 -0.021955206299341057 -0.0082786642342575888 -0.00024271650192262992 0.0013341713600339173
leaf_weight=22247 6447 488 31165 533 6013 36411 6568 325 844 583 322 1917 17486 36150 42619 686 6478 17086 451 471 5190 295 547 23022 6888 1034 1528 778 23240 10424
leaf_count=19948 4415 310 22634 340 4291 28217 4535 223 781 383 204 1375 12329 29951 31593 466 4409 12481 310 446 3510 237 391 16385 5056 728 878 489 16424 7601
internal_value=0 -0.0150589 0.00305786 -0.0411497 -0.0121404 0.00639572 -0.00151339 -0.0735431 -0.0348393 -0.018786 -0.0467701 -0.00922868 -3.6842e-05 0.00930821 0.00449432 -0.0295313 -0.00445638 -0.0081132 -0.00675535 -0.0221257 -0.0235245 -0.0343189 -0.039715 -0.00361365 -0.0108165 -0.0219965 -0.0260648 -0.0141598 -0.00131544 0.00350041
internal_weight=0 52426 255810 5273 47153 147851 107959 858 4415 14364 1357 32789 71891 58397 89454 3058 36068 26342 17537 8351 7102 878 1035 29590 8805 6224 2372 1249 40726 53043
internal_count=231340 37314 194026 3593 33721 117310 76716 563 3030 10084 905 23637 51387 49899 67411 2125 25329 19222 12791 5793 4858 620 701 20920 6431 4238 1659 935 28753 39194
is_linear=0
shrinkage=0.05


Tree=7
num_leaves=31
num_cat=0
split_feature=11 11 11 5 11 20 11 24 24 15 24 19 5 11 11 19 20 39 11 31 30 5 11 39 52 37 39 11 1 31
split_gain=5155.7 1441.33 1411.79 393.944 329.368 280.291 242.357 214.522 80.2846 70.8879 64.8465 61.5633 58.9582 51.8169 49.8756 43.033 38.5804 36.111 35.7289 35.62 42.2817 31.9254 28.4451 27.8533 27.4562 27.3242 43.2456 26.307 25.2889 23.206
threshold=0.69643104076385509 1.509479343891144 0.37199641764163976 2.2017407417297368 0.99510070681571972 -4.766206979751586 0.22531434893608096 1.4600564241409304 3.1177980899810795 -2.4235833883285518 2.2913430929183964 2.5568110942840581 0.93580728769302379 0.45802356302738195 0.29272834956645971 -0.59731861948966969 -1.7618861794471739 -0.0090045379474759085 0.5362677574157716 1.174883306026459 -0.75884225964546193 1.2950186729431155 0.14540981501340869 -0.0019336580880917607 0.18259259313344958 2.5000000000000004 -0.0041087858844548455 1.2300519347190859 0.17873601615428927 1.442749619483948
decision_type=2 2 2 2 2 2 2 2 2 2 2 2 2 2 2 2 2 2 2 2 2 2 2 2 2 2 2 2 2 2
left_child=2 4 6 9 10 -5 22 13 -6 -3 29 23 15 -4 -8 -9 -12 -11 -17 25 27 -19 -1 -7 -15 26 -10 -21 -23 -2
right_child=1 3 7 5 8 11 14 12 19 17 16 -13 -14 24 -16 18 -18 21 -20 20 -22 28 -24 -25 -26 -27 -28 -29 -30 -31
leaf_value=0.011547861785296046 -0.0088060820906087529 -0.04664247921342668 0.0022342114785161063 -0.09892192904599538 -0.01343775468773572 -0.026915416146770416 0.0062728621159360877 -0.0053140187551486981 -0.025941621946617352 -0.0139204375673407 -0.015192009433929675 -0.062087544104043116 -0.0075678227667863229 -0.003328651751610406 0.0038909285012350366 -0.00010471462947700741 -0.0095862317173365762 -0.023131406112676139 -0.0031857050922011981 -0.013696660009309761 -0.027720513077587067 -0.027084682681015694 0.0086893582182370251 -0.048131170346833535 0.00026218767874687353 -0.019586010368015522 -0.047930982740823525 -0.020775280666125818 -0.039551624698698891 -0.0049307096539922294
leaf_weight=11842 6484 583 35993 367 6013 301 39227 11554 822 419 4055 473 6914 7012 49996 16789 12680 1121 21408 2576 1204 739 32980 330 22095 740 310 2699 940 9570
leaf_count=10827 4564 382 26185 222 4291 202 30966 8050 528 246 2780 318 4697 5036 37433 11978 9274 811 15196 1811 863 534 28092 229 15566 521 241 1829 649 7019
internal_value=0 -0.0143066 0.00290497 -0.0390961 -0.0115337 -0.0610684 0.00644519 -0.000992299 -0.0178473 -0.0305811 -0.00876734 -0.0484067 -0.00324173 0.000965694 0.00493821 -0.00264038 -0.0109454 -0.0276586 -0.00183153 -0.0210204 -0.0192581 -0.0297087 0.00944482 -0.0380694 -0.000602945 -0.0271061 -0.0320004 -0.0173217 -0.0340838 -0.00649637
internal_weight=0 52426 255810 5273 47153 1471 134045 121765 14364 3802 32789 1104 56665 65100 89223 49751 16735 3219 38197 8351 6479 2800 44822 631 29107 1872 1132 5275 1679 16054
internal_count=231340 37314 194026 3593 33721 971 107318 86708 10084 2622 23637 749 39921 46787 68399 35224 12054 2240 27174 5793 4503 1994 38919 431 20602 1290 769 3640 1183 11583
is_linear=0
shrinkage=0.05


Tree=8
num_leaves=31
num_cat=0
split_feature=11 11 11 5 11 11 24 40 24 18 11 11 31 11 19 31 19 41 36 19 39 11 24 41 52 52 43 18 52 52
split_gain=4654.65 1325.93 1263.74 360.265 275.991 267.988 165.456 143.444 95.2184 92.7651 73.3529 62.0941 53.0298 51.9291 45.0192 43.0062 39.3611 37.6221 37.4139 35.7617 33.6206 32.9412 29.1352 27.6513 27.5954 26.1678 24.4335 21.9853 21.9575 21.4387
threshold=0.70960602164268505 0.39581194519996649 1.509479343891144 2.7198326587677006 1.1416402459144595 0.2716460675001145 1.6489872336387636 -0.0098802489228546602 2.4451614618301396 -0.0031091569690033789 2.2009946107864384 0.18856944143772128 1.6114346385002138 0.48449724912643438 -0.72801515460014332 9.1824288368225115 3.2178242206573491 3.641909241676331 0.98296290636062633 -0.34875555336475367 -0.0040118794422596684 0.90123322606086742 4.8551387786865243 0.55758032202720653 0.65500000119209301 0.49500000476837164 0.73192915320396434 -0.00059177953517064441 0.46333333849906927 0.37965516746044164
decision_type=2 2 2 2 2 2 2 2 2 2 2 2 2 2 2 2 2 2 2 2 2 2 2 2 2 2 2 2 2 2
left_child=1 5 4 9 8 11 13 -5 25 10 20 -1 22 -3 -8 24 18 -16 29 -7 -4 -10 -6 -23 26 27 -11 -2 -15 -14
right_child=2 6 3 7 12 19 14 -9 21 15 -12 -13 16 28 17 -17 -18 -19 -20 -21 -22 23 -24 -25 -26 -27 -28 -29 -30 -31
leaf_value=0.0098479768664672934 -0.013331783038265805 0.0012889227941663337 -0.026475302912028317 -0.092877367134962877 -0.024072046557169054 0.0013295655502006728 -0.0070191701052673477 -0.050576549234075285 -0.0099168184188887839 -0.040335887116889985 -0.063135525056495459 0.0068134780453362274 -0.021032343220252842 -0.0028223206824609208 -0.0028847921091286343 -0.037569043636832083 -0.033958513738392891 -0.018116709809192885 -0.032889609175581425 0.0042131900720622957 -0.04461899692628235 -0.012480266134608238 -0.040580615569796523 -0.018741848161934287 -0.018556980520040966 -0.0055517141350234916 -0.023943459911216353 -0.0072850345083938107 -0.00025908309830465734 -0.013446777992833961
leaf_weight=27514 2365 36840 510 327 1751 12931 9605 531 9207 346 322 43573 1225 15351 29926 686 334 410 319 63833 525 6514 318 2426 1340 12102 686 4140 18332 3947
leaf_count=24495 1687 26664 327 187 1186 10008 6586 376 6658 287 204 35346 823 10804 21223 466 244 295 210 47461 374 4610 235 1713 980 8691 392 3069 12945 2794
internal_value=0 0.00267966 -0.013998 -0.0371449 -0.0112635 0.00577602 -0.0014647 -0.0667875 -0.00944122 -0.0313704 -0.0422616 0.00798809 -0.0197459 -8.40612e-06 -0.00403598 -0.0265252 -0.0172973 -0.00309125 -0.0162779 0.00372746 -0.0357128 -0.0120184 -0.0266277 -0.0141813 -0.0233167 -0.00692727 -0.0294731 -0.00948514 -0.00142733 -0.0152472
internal_weight=0 258315 49921 5273 44648 147851 110464 858 36754 4415 1357 71087 7894 70523 39941 3058 5825 30336 5491 76764 1035 18147 2069 8940 2372 18607 1032 6505 33683 5172
internal_count=231340 195827 35513 3593 31920 117310 78517 563 26428 3030 905 59841 5492 50413 28104 2125 4071 21518 3827 57469 701 12981 1421 6323 1659 13447 679 4756 23749 3617
is_linear=0
shrinkage=0.05


Tree=9
num_leaves=31
num_cat=0
split_feature=11 11 11 5 11 20 11 11 24 56 15 19 31 5 24 11 19 36 36 23 5 34 19 53 31 24 35 40 15 20
split_gain=4207.4 1294.67 1064.72 327.22 242.86 242.235 215.339 177.565 70.0928 59.3883 58.7397 50.9543 47.8669 45.7723 42.1082 39.7408 35.5423 33.7854 32.628 31.6666 34.983 31.3959 28.1242 27.6613 27.3285 26.3137 24.5803 28.1809 26.4264 23.4065
threshold=0.74029389023780834 0.39581194519996649 1.509479343891144 2.2017407417297368 0.25035695731639868 -4.766206979751586 1.1416402459144595 0.53974440693855297 2.7647337913513188 2.9939657449722294 -2.4235833883285518 -0.85065576434135426 1.6114346385002138 0.75950545072555553 1.037357032299042 0.17281614989042285 3.2178242206573491 0.98296290636062633 -0.98296290636062611 -0.89999446272850026 1.2950186729431155 1.0000000180025095e-35 -0.23021464049816129 14.341401576995851 0.67771166563034069 4.8551387786865243 -0.7865660786628722 -0.0076307484414428464 -0.25525036454200739 -0.70147308707237233
decision_type=2 2 2 2 2 2 2 2 2 2 2 2 2 2 2 2 2 2 2 2 2 2 2 2 2 2 2 2 2 2
left_child=1 4 6 10 15 -5 8 13 21 -7 -4 -9 25 22 -6 -1 17 -14 -15 -12 -21 26 -3 -13 -23 -8 -2 28 -28 -16
right_child=2 7 3 5 14 9 12 11 -10 -11 19 23 16 18 29 -17 -18 -19 -20 20 -22 24 -24 -25 -26 -27 27 -29 -30 -31
leaf_value=0.0097254058998437268 -0.0060584813391493545 -0.0010659087693934601 -0.042150974812182246 -0.090502863400868827 0.0046159448993879264 -0.036150782967431357 -0.022869131166910403 -0.0074025380348754742 -0.012631548616155258 -0.061985759123095445 -0.013724196856448762 -0.0034593001641360695 -0.014485130470451055 -0.019060312231961255 -0.00075202194704291042 0.0070112810918071247 -0.032265656372851961 -0.031250267806499324 -0.0032462228371980106 -0.019963559849204695 -0.031692714311350158 -0.011896196114685559 0.0012783472214025603 0.0014354618793521636 -0.0052282910306808315 -0.038557945604970369 -0.031335909579756002 -0.010649221562542548 -0.012729058535903393 0.0029547972836642929
leaf_weight=21169 2387 18572 583 367 59687 790 1751 8213 11545 314 535 39237 5172 348 5149 37228 334 319 5002 1056 1628 1796 41119 3115 10647 318 343 4460 434 24618
leaf_count=19012 1730 13329 382 222 45461 528 1186 5522 8214 221 353 28223 3617 241 3967 30887 244 210 3494 764 1123 1293 29582 1801 7715 235 209 3354 238 17983
internal_value=0 0.00238788 -0.0141898 -0.0352914 0.00548723 -0.0553165 -0.0113724 -0.00157596 -0.00952718 -0.0435482 -0.0275312 -0.00379835 -0.0187596 0.000151834 0.00384984 0.00799531 -0.0164333 -0.0154646 -0.00427825 -0.0248711 -0.0270871 -0.00774062 0.00054896 -0.00309926 -0.0061916 -0.0252979 -0.0102676 -0.0121846 -0.0209726 0.0023136
internal_weight=0 263457 44779 5273 147851 1471 39506 115606 31612 1104 3802 50565 7894 65041 89454 58397 5825 5491 5350 3219 2684 20067 59691 42352 12443 2069 7624 5237 777 29767
internal_count=231340 199502 31838 3593 117310 971 28245 82192 22753 749 2622 35546 5492 46646 67411 49899 4071 3827 3735 2240 1887 14539 42911 30024 9008 1421 5531 3801 447 21950
is_linear=0
shrinkage=0.05


Tree=10
num_leaves=31
num_cat=0
split_feature=24 24 24 58 40 24 33 24 33 24 43 20 20 44 35 20 52 20 52 40 31 44 53 43 12 14 41 53 53 53
split_gain=3852.19 1234.5 709.401 324.602 297.824 256.482 145.473 116.508 81.8597 60.9662 48.7931 47.8423 40.9992 57.175 41.6183 38.7172 33.6712 28.6273 31.0582 30.6686 28.4113 28.2104 27.9654 27.7563 33.5605 30.3465 28.82 27.309 24.6328 22.9858
threshold=1.801410496234894 4.2701392173767099 0.96407073736190807 0.01533913239836693 -0.010278194677084683 2.4794235229492192 1.0000000180025095e-35 0.61612743139266979 1.5000000000000002 3.4855030775070195 0.9013446867465974 -0.75599148869514454 -2.4771442413330074 5.1239583492279062 -0.37940952181816096 -0.62146252393722523 0.63499999046325695 -0.59218254685401905 0.63499999046325695 -0.016982234083116051 9.1824288368225115 -1.6533939242362974 1.4765071868896487 0.86402782797813427 0.0097123151645064371 0.39880354702472692 1.7047405838966372 2.1250643730163579 1.356736481189728 2.3325999975204472
decision_type=2 2 2 2 2 2 2 2 2 2 2 2 2 2 2 2 2 2 2 2 2 2 2 2 2 2 2 2 2 2
left_child=2 5 7 8 -5 11 15 27 23 17 12 16 14 -14 -10 -4 -2 18 -7 -20 -6 -11 -17 24 -3 -26 -25 -1 -9 -8
right_child=1 3 6 4 20 9 29 28 10 21 -12 -13 13 -15 -16 22 -18 -19 19 -21 -22 -23 -24 26 25 -27 -28 -29 -30 -31
leaf_value=0.0065988609787147852 -0.010488758661088565 -0.01957570649412935 -0.00055691930258281667 -0.093161542320891716 -0.027304003985176857 -0.015972230994686875 -0.0024440602805341298 0.0040172201856177826 -0.032619579280195397 -0.022303531952292181 -0.018353417209812983 -0.0037813776777786898 -0.024135815749950378 -0.049413307627258672 -0.05611987718910208 0.0017235779427659599 -0.005243083226874664 -0.0084730870360510378 -0.0030367653418573986 -0.011863792884112927 -0.045494822956359468 -0.013907406629982173 0.0043911725359305296 -0.0094976963638895903 -0.045844669027060692 -0.02289790882103351 -0.024853976656633775 0.0090457055949741821 0.0060542550718325977 0.0011485380463276322
leaf_weight=21635 5473 1930 15320 326 404 3349 35702 48295 411 1233 620 25932 1129 280 358 49807 6944 12810 1267 4418 475 5381 12239 1024 264 325 436 24157 21434 5086
leaf_count=19185 3814 1454 11590 184 300 2291 25601 38014 271 924 356 18660 785 231 225 36685 4914 9160 768 3191 314 3677 8515 594 202 250 260 19864 15885 3162
internal_value=0 -0.00989338 0.00314424 -0.0284768 -0.052386 -0.00767267 0.000420174 0.00593037 -0.0242185 -0.011269 -0.0307761 -0.00500368 -0.0343024 -0.0291905 -0.0436186 0.00169405 -0.00755586 -0.00999462 -0.0121509 -0.00989742 -0.0371746 -0.0154758 0.00224984 -0.0196006 -0.0227834 -0.0332433 -0.0140974 0.00788983 0.00464346 -0.00199607
internal_weight=0 74789 233675 7982 1205 66807 118154 115521 6777 28458 2798 38349 2178 1409 769 77366 12417 21844 9034 5685 879 6614 62046 3979 2519 589 1460 45792 69729 40788
internal_count=231326 52825 178501 5426 798 47399 85553 92948 4628 20011 1868 27388 1512 1016 496 56790 8728 15410 6250 3959 614 4601 45200 2760 1906 452 854 39049 53899 28763
is_linear=0
shrinkage=0.05


Tree=11
num_leaves=31
num_cat=0
split_feature=11 11 11 11 40 11 11 24 24 44 5 43 20 24 30 11 41 11 40 8 40 31 40 20 41 31 34 20 41 11
split_gain=3501.92 1075.63 838.818 345.789 200.477 179.058 165.171 81.4258 73.1038 64.5366 52.9939 52.9332 37.7493 36.3493 35.723 32.967 31.8588 31.1654 30.2761 45.8618 29.4442 27.814 27.733 27.03 23.4996 23.4869 22.9873 22.2468 21.668 20.9996
threshold=0.74029389023780834 0.37199641764163976 1.2300519347190859 2.2009946107864384 -0.01075264113023877 0.52226135134696972 0.21869497746229175 4.8551387786865243 2.4120306968688969 -3.7576558589935298 0.78948557376861583 0.80157965421676647 -0.62146252393722523 1.3150327205657961 -0.97407934069633473 0.90123322606086742 0.57687070965766918 0.31194600462913519 0.0037240878446027641 -0.00081032875459641207 -0.0037786390166729684 1.0571721792221072 -0.0094686183147132379 -1.1370699405670164 3.3090953826904301 0.84849241375923168 1.0000000180025095e-35 -0.77385768294334401 0.53824603557586681 1.8257408738136294
decision_type=2 2 2 2 2 2 2 2 2 2 2 2 2 2 2 2 2 2 2 2 2 2 2 2 2 2 2 2 2 2
left_child=1 6 8 7 -5 13 -1 20 26 -9 21 14 -8 -3 18 -10 -17 -14 19 -11 22 -7 25 -12 27 -4 -2 -15 -22 -13
right_child=2 5 3 4 -6 10 12 9 15 11 23 29 17 24 -16 16 -18 -19 -20 -21 28 -23 -24 -25 -26 -27 -28 -29 -30 -31
leaf_value=0.0079246838834538293 -0.009067618941200636 0.0015588561362018276 -0.029060336155983219 -0.078349044632799847 -0.036356801688617657 -0.0039419335314139926 0.0013611461600406573 -0.051655260534785141 -0.0087124972267385876 -0.022773917699870777 -0.010101066100223382 -0.015861055818419827 0.0052875102474689043 -0.0029618063210035146 -0.049719110512471756 -0.011287898855297905 -0.017248841834367545 0.0032912238334828607 -0.015681902656717036 -0.049881253752112713 -0.014321908154416141 -0.0014150291682741294 -0.030412701046923653 -0.0046924304394908552 -0.0087445772660430521 -0.015129271402780748 -0.0049626771972900467 0.00025911316342588578 -0.024884369417819865 -0.029862496519730265
leaf_weight=41703 5412 40780 419 402 979 18029 10826 278 8184 342 3234 1017 49742 6931 278 8506 3051 32224 289 291 3313 27504 821 8094 882 1105 9236 23655 571 366
leaf_count=36337 3966 29470 262 231 670 12480 8674 223 5926 272 2201 597 38830 5019 227 6000 2145 23674 209 236 2350 19567 626 5747 599 669 6628 16866 413 212
internal_value=0 0.00218166 -0.0129301 -0.0253202 -0.0486283 -0.0010782 0.00531097 -0.0217741 -0.00915687 -0.028761 -0.00317709 -0.026278 0.00413623 0.000573691 -0.0339685 -0.0111428 -0.0128629 0.00450274 -0.0291707 -0.0352946 -0.0185609 -0.00241563 -0.0229913 -0.00623728 -0.000703013 -0.0189759 -0.00647985 -0.000470843 -0.0158807 -0.0195853
internal_weight=0 263604 44860 10471 1381 129109 134495 9090 34389 2861 56861 2583 92792 72248 1200 19741 11557 81966 922 633 6229 45533 2345 11328 31468 1524 14648 30586 3884 1383
internal_count=231326 199464 31862 7197 901 91949 107515 6296 24665 1976 39995 1753 71178 51954 944 14071 8145 62504 717 508 4320 32047 1557 7948 22484 931 10594 21885 2763 809
is_linear=0
shrinkage=0.05


Tree=12
num_leaves=31
num_cat=0
split_feature=11 11 11 11 11 40 11 24 24 44 19 20 23 24 41 44 56 40 17 44 19 41 20 52 40 37 41 52 47 56
split_gain=3160.73 972.28 757.244 312.13 189.888 181.002 127.082 74.9476 65.9775 57.7226 48.4761 42.4927 41.4719 38.5035 30.146 30.3684 31.6907 29.7087 30.9756 38.7934 29.5257 27.8218 26.6596 25.9679 25.8512 26.2857 24.8139 24.6632 24.4069 24.1869
threshold=0.74029389023780834 0.35570435225963598 1.2300519347190859 2.2009946107864384 0.51565212011337291 -0.01075264113023877 0.20959872007369998 3.7301241159439091 2.4120306968688969 -3.7576558589935298 -0.63029748201370228 5.0041270256042489 1.083351790904999 1.2052250504493716 3.462723016738892 -1.6533939242362974 1.9464010000228884 -0.0037786390166729684 -0.0072525353170931331 -1.5766538977622984 -0.45307469367980951 3.462723016738892 -0.79328265786170948 0.36333334445953375 -0.00033552094828337426 3.5000000000000004 0.53824603557586681 0.47111110389232641 -0.069605428725481019 -0.28475274145603174
decision_type=2 2 2 2 2 2 2 2 2 2 2 2 2 2 2 2 2 2 2 2 2 2 2 2 2 2 2 2 2 2
left_child=1 6 8 7 13 -5 -1 -4 27 -9 29 17 -13 -3 15 24 -17 18 -11 -20 -8 23 -15 -12 25 28 -19 -2 -10 -6
right_child=2 4 3 5 10 -7 20 9 14 11 21 12 -14 22 -16 16 -18 26 19 -21 -22 -23 -24 -25 -26 -27 -28 -29 -30 -31
leaf_value=0.007723464816138656 -0.0091158233402073748 0.001943948099268774 -0.014519565467926487 -0.074441312207371255 -0.0072974921867446189 -0.034540816506160643 0.001124069117661829 -0.041338189050161456 -0.027036822190300402 -0.015272366321425996 -0.0037086727032020041 -0.023543016992616642 -0.048839171914844569 -0.0027563806483043973 -0.025355746504467203 -0.0088246192562405814 -0.017259943791353021 -0.014455906868623986 -0.042091114047106755 -0.024260169358629857 0.0045099466581904439 -0.014600629345045746 0.00038435517831971589 -0.0012081227390944777 -0.0050547686080756318 -0.010180213734747087 -0.026471717428811117 -0.0047329023423681995 -0.014902392564850382 -0.0028003268669896833
leaf_weight=37376 4754 38118 3200 402 8170 979 7003 446 791 601 15802 381 286 8482 339 15028 1203 1930 403 1288 80014 446 33200 30275 561 938 555 9894 881 4718
leaf_count=32747 3463 27596 2278 231 5793 670 5662 356 570 379 11241 282 213 6164 236 10486 967 1325 270 800 61740 326 23753 21443 441 684 393 7131 687 2999
internal_value=0 0.00207258 -0.0122842 -0.0240564 -0.000797879 -0.046201 0.00528495 -0.0206873 -0.0086991 -0.0240352 -0.00293803 -0.0226103 -0.0344465 0.000795478 -0.0105858 -0.0103264 -0.00945085 -0.0209508 -0.0250633 -0.028532 0.00423747 -0.00218622 -0.000254814 -0.00206574 -0.0148036 -0.0168963 -0.0171491 -0.0061559 -0.0206558 -0.00565153
internal_weight=0 263604 44860 10471 139211 1381 124393 9090 34389 5890 59411 5444 667 79800 19741 19402 16231 4777 2292 1691 87017 46523 41682 46077 3171 2610 2485 14648 1672 12888
internal_count=231326 199464 31862 7197 99315 901 100149 6296 24665 4018 41802 3662 495 57513 14071 13835 11453 3167 1449 1070 67402 33010 29917 32684 2382 1941 1718 10594 1257 8792
is_linear=0
shrinkage=0.05


Tree=13
num_leaves=31
num_cat=0
split_feature=24 11 11 5 7 11 11 11 11 24 20 35 31 7 31 39 52 11 43 41 52 41 14 44 52 20 11 36 24 14
split_gain=2873.35 1027.12 557.984 286.821 280.255 194.663 103.164 84.4186 83.5543 52.064 40.7119 40.2517 37.4877 39.7676 29.7615 50.8096 28.823 27.8676 30.1204 27.6304 27.0681 27.0188 25.7538 24.9159 28.0702 24.486 23.8695 23.2095 21.7651 20.7064
threshold=1.7719874382019045 1.2300519347190859 0.34781572222709661 2.2017407417297368 -0.023512897081673142 0.80266568064689647 0.20959872007369998 0.45802356302738195 1.8257408738136294 3.7301241159439091 -1.1370699405670164 1.0000000180025095e-35 1.3549497723579409 -0.017199745401740071 2.7785110473632817 -0.0041087858844548455 0.41189655661582952 2.2009946107864384 0.85259979963302623 3.641909241676331 0.62895348668098461 -0.54411488771438588 -0.10357720404863356 3.3203583955764775 0.39142856001853948 -0.23831975460052487 0.5362677574157716 -0.6035533845424651 4.8551387786865243 -0.10959315672516821
decision_type=2 2 2 2 2 2 2 2 2 2 2 2 2 2 2 2 2 2 2 2 2 2 2 2 2 2 2 2 2 2
left_child=2 5 6 9 -5 10 -1 -4 -6 -3 20 -10 13 -7 15 -11 29 18 27 26 -2 -20 -15 24 -14 -8 -12 -16 -17 -9
right_child=1 3 7 4 8 12 25 16 11 14 19 -13 23 22 17 28 -18 -19 21 -21 -22 -23 -24 -25 -26 -27 -28 -29 -30 -31
leaf_value=0.0073373018907847204 -0.009898686238958088 -0.013962442524697423 0.0016020404589037027 -0.085651468365430861 -0.019951045203409665 -0.021955960866554654 0.0028078489283484167 -0.0047263349074539345 -0.032689275575406927 -0.019804037308355556 -0.00062464297978030324 -0.054559243336552758 -0.011499436912259291 -0.012559710815442561 -0.030583829515291556 -0.029553874439003404 -0.00021264018562373659 -0.029850823397603976 -0.019333099700020916 -0.014966242254381449 -0.00473387552360632 -0.0037606041743119671 -0.0043355756181245103 -0.015732102374238097 -0.0065371831313910797 0.0047178297808753277 -0.0037900358215952851 -0.017505100097005732 -0.045674919042252772 -0.0014703703011823069
leaf_weight=37376 4154 3177 56667 291 739 980 23611 7277 459 1178 7933 400 3818 5685 485 581 33253 506 505 489 6524 621 1145 1058 11268 58053 23898 1152 338 14843
leaf_count=32747 2884 2260 41307 203 509 715 18768 5021 309 724 5572 238 2751 3875 358 418 23506 355 282 345 4470 367 838 887 8040 44690 17136 907 238 10606
internal_value=0 -0.00835368 0.00277791 -0.0229462 -0.0405764 -0.00607965 0.00516153 0.000245346 -0.0323196 -0.0190436 -0.00406719 -0.0429248 -0.00969176 -0.0125364 -0.0220489 -0.0267079 -0.00114306 -0.0190529 -0.0170654 -0.00318268 -0.00674385 -0.0107557 -0.0111818 -0.00831491 -0.00779372 0.00416565 -0.00300119 -0.0213963 -0.0355263 -0.00254168
internal_weight=0 77384 231080 10432 1889 66952 119040 112040 1598 8543 42998 859 23954 7810 5366 2097 55373 3269 2763 32320 10678 1126 6830 16144 15086 81664 31831 1637 919 22120
internal_count=231326 54681 176645 7168 1259 47513 96205 80440 1056 5909 30407 547 17106 5428 3649 1380 39133 2269 1914 23053 7354 649 4713 11678 10791 63458 22708 1265 656 15627
is_linear=0
shrinkage=0.05


Tree=14
num_leaves=31
num_cat=0
split_feature=24 24 24 58 40 24 33 49 37 53 44 24 49 43 44 20 14 37 53 58 35 39 56 41 40 12 34 14 8 18
split_gain=2594.07 835.286 485.781 233.793 234.06 173.33 114.719 69.1637 68.2596 59.5412 53.0969 51.7247 46.1438 38.6713 38.2886 37.9027 31.965 30.3569 27.3865 26.6832 29.3707 51.7132 26.584 25.1598 26.3106 23.6425 22.359 30.4285 24.3908 21.9135
threshold=1.801410496234894 4.2701392173767099 0.88042765855789196 0.01533913239836693 -0.010278194677084683 2.4794235229492192 1.0000000180025095e-35 1.2256954312324526 3.5000000000000004 1.356736481189728 -3.7576558589935298 3.1939561367034917 0.98175013065338146 0.75261607766151439 5.1239583492279062 -0.62146252393722523 -0.20942112803459165 1.5000000000000002 11.963782310485842 0.0087712774984538572 1.0000000180025095e-35 0.0030565980123355989 1.4118500947952273 3.0114296674728398 0.0012073873658664527 0.0019342408631928267 1.0000000180025095e-35 -0.20466869324445722 -0.0051421956159174434 -0.00068271320196799923
decision_type=2 2 2 2 2 2 2 2 2 2 2 2 2 2 2 2 2 2 2 2 2 2 2 2 2 2 2 2 2 2
left_child=2 5 9 8 -5 12 15 11 10 25 -3 29 16 -10 17 -4 -2 -12 -17 -19 21 -21 -6 24 -9 -1 27 28 -13 -7
right_child=1 3 6 4 22 7 -8 23 13 -11 14 26 -14 -15 -16 18 -18 19 -20 20 -22 -23 -24 -25 -26 -27 -28 -29 -30 -31
leaf_value=0.0048299650066887427 -0.0098086303204735509 -0.040861604722589262 -0.00050184081951669998 -0.079838125725256837 -0.022582914946096176 -0.012096241248398547 -0.0015563373816005327 -0.0075621917886555222 -0.018770184251908704 0.006674334942180133 -0.015597608421560938 -0.020020394643367658 -0.0027572282557737412 -0.0038126666191859028 -0.037885898660821163 0.0017049934595845927 -0.0047339026125755778 -0.016653027453143242 0.00445810745056331 -0.012229288997250273 -0.036591532905354052 -0.0368142481743578 -0.040245585850781536 -0.014122068228917853 -0.0025195955376840556 0.0025578005000724152 -0.012617494426517285 -0.014826298343212542 -0.038125002541250425 -0.007462313587512411
leaf_weight=40615 4543 374 17418 326 501 4246 41480 7032 854 42021 2055 496 24006 875 323 65721 9800 811 10472 531 595 359 378 965 4094 15948 3393 1516 302 6414
leaf_count=34194 3233 289 13259 184 353 2967 29256 4976 712 33319 1374 316 17017 522 255 48884 7138 543 6983 350 364 219 261 625 2880 12606 2390 1034 205 4618
internal_value=0 -0.00811883 0.00257999 -0.023405 -0.0436955 -0.00629214 0.000632497 -0.00924858 -0.0197913 0.00524864 -0.0227286 -0.0113673 -0.00409805 -0.0112072 -0.0212692 0.0016024 -0.00634184 -0.0200273 0.00208344 -0.0239834 -0.0279729 -0.0221763 -0.0302156 -0.0063798 -0.00570708 0.00418938 -0.0152098 -0.0190037 -0.0269112 -0.00930902
internal_weight=0 74789 233675 7982 1205 66807 135091 28458 6777 98584 5048 16367 38349 1729 4674 93611 14343 4351 76193 2296 1485 890 879 12091 11126 56563 5707 2314 798 10660
internal_count=231326 52825 178501 5426 798 47399 98382 20011 4628 80119 3394 11530 27388 1234 3105 69126 10371 2850 55867 1476 933 569 614 8481 7856 46800 3945 1555 521 7585
is_linear=0
shrinkage=0.05


Tree=15
num_leaves=31
num_cat=0
split_feature=11 24 11 5 11 11 35 24 15 7 20 39 11 5 1 34 31 20 36 10 37 44 40 40 35 31 53 32 30 19
split_gain=2315.77 800.177 510.451 170.963 158.858 120.794 115.334 83.9554 54.4857 53.6784 42.0386 41.3809 33.3468 33.1028 65.0661 37.4547 32.9131 31.1209 29.8305 49.6811 29.1478 41.167 35.2321 33.8693 28.9912 29.188 28.4723 27.1881 24.6834 24.1899
threshold=0.80266568064689647 1.1597940921783449 1.509479343891144 2.7198326587677006 0.2716460675001145 0.53974440693855297 1.0000000180025095e-35 3.1177980899810795 -2.4235833883285518 -0.0066961410921066991 -0.75599148869514454 -0.0097876773215830309 0.16443457454442981 1.7708408832550051 0.17651182413101199 1.0000000180025095e-35 1.0782343149185183 -0.89920118451118458 -0.98296290636062611 0.0045826854184269914 3.5000000000000004 -1.6533939242362974 -0.0035359917674213644 -0.01075264113023877 0.91597560048103344 1.3989183306694033 1.6161476969718935 1.0000000180025095e-35 -0.84629270434379567 1.9721381068229678
decision_type=2 2 2 2 2 2 2 2 2 2 2 2 2 2 2 2 2 2 2 2 2 2 2 2 2 2 2 2 2 2
left_child=1 4 7 8 12 10 -5 17 9 -4 -3 -10 -1 15 -15 -13 27 24 19 -12 21 22 23 -9 25 -2 -6 -7 -22 -18
right_child=2 5 3 6 26 16 -8 20 11 -11 18 13 -14 14 -16 -17 29 -19 -20 -21 28 -23 -24 -25 -26 -27 -28 -29 -30 -31
leaf_value=0.0075743189365757475 -0.011845819357289412 -0.0024930175942009512 -0.049949592743757668 -0.029503766019318374 0.0019810025208652437 -0.0056907297379012716 -0.06619279089737258 -0.01985239844534897 -0.0053309466939474165 -0.022873697832859106 -0.0020316087887910545 -0.028318969767891611 0.0050839645679025876 -0.015426374834148732 -0.040468025206955902 -0.014216993625496247 -0.0019442439746488788 -0.0058854295541037951 0.00095778595461111266 -0.02351912578265106 -0.00689608848380956 -0.0126424822485144 -0.0089785086334592153 -0.037799858928662104 -0.020837281283823141 -0.0045571570349475839 0.0042045456718954616 -0.0017636817209816175 -0.017003817899773521 -0.0098193403076370644
leaf_weight=18149 3661 13263 321 469 63328 16525 398 769 442 432 2400 661 51902 481 567 1650 32896 12453 47891 302 2887 6519 409 403 579 2201 18634 6012 764 1004
leaf_count=16397 2522 9639 196 326 47819 11325 238 540 267 284 1712 444 42664 343 384 1192 23538 9057 34361 215 2038 4389 329 339 380 1636 13149 4291 586 742
internal_value=0 0.00156982 -0.0119127 -0.0260546 0.00398091 -0.00147704 -0.0464029 -0.00941031 -0.0221713 -0.0344669 1.25078e-05 -0.0197271 0.00572927 -0.0216193 -0.0290003 -0.018261 -0.00316238 -0.0073457 0.00066937 -0.00444106 -0.012729 -0.0144016 -0.0216427 -0.0260507 -0.0101676 -0.0091104 0.00248657 -0.00464327 -0.00901529 -0.00217776
internal_weight=0 272306 36066 5421 152013 120293 867 30645 4554 753 63856 3801 70051 3359 1048 2311 56437 18894 50593 2702 11751 8100 1581 1172 6441 5862 81962 22537 3651 33900
internal_count=231342 205852 25490 3674 120029 85823 564 21816 3110 480 45927 2630 59061 2363 727 1636 39896 13595 36288 1927 8221 5597 1208 879 4538 4158 60968 15616 2624 24280
is_linear=0
shrinkage=0.05


Tree=16
num_leaves=31
num_cat=0
split_feature=11 11 11 11 11 20 24 41 56 41 45 19 37 52 19 11 19 52 36 41 52 22 52 21 41 52 15 37 41 14
split_gain=2090.17 731.058 464.347 178.454 134.114 124.506 77.1519 67.4186 52.8325 47.7466 35.3888 34.7323 43.8701 32.8122 32.6891 31.3848 28.2171 26.2453 25.9215 31.6558 28.8801 25.8372 24.1256 29.1404 23.6877 23.3435 22.9794 21.6426 54.6928 21.5267
threshold=0.80266568064689647 0.43884353339672094 1.8257408738136294 0.2716460675001145 1.2300519347190859 -4.766206979751586 1.6744076013565066 2.067485094070435 2.9939657449722294 0.53824603557586681 1.0000000180025095e-35 -0.85065576434135426 3.5000000000000004 0.59045451879501354 -0.5811425745487212 0.1672799810767174 -0.82321572303771962 0.39142856001853948 -0.7865660786628722 1.4532193541526797 0.22111111134290698 1.2401450276374819 0.31055556237697607 4.1676189899444589 -0.51868993043899525 0.47111110389232641 -0.02111094910651445 1.0000000180025095e-35 1.2590445280075075 -0.11564555019140242
decision_type=2 2 2 2 2 2 2 2 2 2 2 2 2 2 2 2 2 2 2 2 2 2 2 2 2 2 2 2 2 2
left_child=1 3 4 15 9 -4 25 10 13 17 11 12 -6 -7 -5 -1 -8 26 19 -16 -20 -19 -18 -24 -15 29 -2 28 -11 -3
right_child=2 6 5 14 7 8 16 -9 -10 27 -12 -13 -14 24 18 -17 22 21 20 -21 -22 -23 23 -25 -26 -27 -28 -29 -30 -31
leaf_value=0.0071298746781828168 -0.013524728401276737 -0.0038947618578562197 -0.052276147271591161 -0.00096587751096609384 -0.039322459518237679 -0.032158782952442254 -0.0056594809477091453 -0.035199629109749039 -0.044867444426241909 -0.030374342140836078 -0.011720233458046972 -0.015550167109539671 -0.013673413586383848 -0.025385239255091098 0.0015216159830536632 0.0047641758568122347 -0.0048358301629085948 -0.0049626904120738608 0.0015487723135114704 -0.0045941923156779156 0.0035899228325118045 -0.01241289374345524 -0.0016583275613356993 -0.011732169847571364 -0.011875989781358606 0.00037546948666512272 -0.0067953207502091245 -0.010352505682414501 -0.0084407890965925349 -0.0007278407906726427
leaf_weight=19212 2287 7739 549 7883 400 610 10304 408 309 502 4707 1967 288 602 15800 51938 9724 13085 28074 2442 45290 1277 26366 737 710 29301 2857 4852 656 17496
leaf_count=17320 1613 5355 334 6048 372 372 7079 289 220 364 2728 1746 244 415 11668 42558 6916 9399 20609 1907 33668 960 18902 556 521 20816 1982 3455 476 12450
internal_value=0 0.00149133 -0.0113177 0.00349104 -0.00967747 -0.030946 -0.00186501 -0.0154289 -0.0256761 -0.00792553 -0.0143286 -0.0189468 -0.0286211 -0.022569 0.0021236 0.00540306 -0.00334662 -0.00672431 0.00238947 0.000702705 0.00280887 -0.00562594 -0.00269936 -0.00193268 -0.0180892 -0.000584529 -0.00978923 -0.0118224 -0.0179671 -0.00169918
internal_weight=0 272306 36066 170639 33286 2780 101667 7770 2231 25516 7362 2655 688 1922 99489 71150 47131 19506 91606 18242 73364 14362 36827 27103 1312 54536 5144 6010 1158 25235
internal_count=231342 205852 25490 133778 23628 1862 72074 5379 1528 18249 5090 2362 616 1308 73900 59878 33453 13954 67852 13575 54277 10359 26374 19458 936 38621 3595 4295 840 17805
is_linear=0
shrinkage=0.05


Tree=17
num_leaves=31
num_cat=0
split_feature=24 11 11 51 11 11 11 11 43 15 44 21 52 24 47 19 20 53 39 21 18 8 37 23 39 13 20 7 20 52
split_gain=1893.13 549.216 512.695 154.939 153.076 117.438 63.2615 61.2549 58.8642 61.4266 48.4488 38.3883 35.9134 32.878 31.5526 33.81 30.111 26.0493 25.5526 24.5675 24.3618 26.1495 24.9109 23.7857 23.6212 39.3795 22.8381 22.5734 21.9741 21.8787
threshold=2.1159032583236699 1.509479343891144 0.33258831501007086 0.88121783733367931 0.90123322606086742 0.53974440693855297 0.2052039057016373 1.8257408738136294 0.90543615818023693 -2.4235833883285518 5.1239583492279062 2.3063169717788701 0.13256756216287616 1.1972727179527285 0.22222457826137546 -1.439611494541168 -1.8348224163055418 3.2552759647369389 0.0038345457287505273 4.6048617362976083 0.00038863625377416616 0.0049818914849311122 4.5000000000000009 -0.66237634420394886 -0.0090045379474759085 35.780290603637702 -0.75599148869514454 0.010547336656600239 -0.23831975460052487 0.67173469066619884
decision_type=2 2 2 2 2 2 2 2 2 2 2 2 2 2 2 2 2 2 2 2 2 2 2 2 2 2 2 2 2 2
left_child=2 4 6 7 16 12 -1 24 9 -9 23 18 -4 -14 15 -13 -2 -7 20 -18 22 -22 29 -11 -3 -26 -15 -21 -8 -6
right_child=1 3 5 -5 11 17 28 8 -10 10 -12 14 13 26 -16 -17 19 -19 -20 27 21 -23 -24 -25 25 -27 -28 -29 -30 -31
leaf_value=0.0061213643768575684 -0.0080090736988084523 -0.0033991089983193682 -0.0010315614061507884 -0.05502856922647207 -0.017287025756574616 -0.0026535205031852959 0.0021778479164383038 -0.04439372831834542 -0.010877928772400715 -0.0090134981493739524 -0.041281579766817934 -0.037299732913817073 0.0023545956598662004 -0.0019424312329470866 -0.0064324524711797592 -0.016921067258912036 -0.0035954434808155317 0.0012313424771665154 -0.0066037018415205295 -0.0022874317505895241 -0.0057396918364841518 -0.013151014910526199 -0.0062828662606240386 -0.024717685662745306 -0.032665780540004109 -0.014534875073182178 0.0009327530436395228 -0.020627131611686611 0.0040855796264729089 -0.011317449658782357
leaf_weight=35072 5383 337 20970 367 2882 41217 21066 569 478 339 357 305 37992 8821 373 619 23335 4819 4577 284 3386 1837 1223 848 362 1742 31811 410 53284 3307
leaf_count=30853 3612 200 15250 260 1931 29704 16865 335 308 232 256 223 27611 6499 280 433 16682 2892 2977 217 2424 1490 882 600 243 1226 22795 293 41393 2376
internal_value=0 -0.00857467 0.00178473 -0.0236917 -0.00687106 -0.000158454 0.00437089 -0.0213957 -0.026753 -0.0303373 -0.0251319 -0.0104333 0.000806887 0.00129723 -0.0187292 -0.0236808 -0.00462903 -0.00224684 -0.00980715 -0.00387153 -0.010967 -0.00834837 -0.0128109 -0.020244 -0.0157006 -0.0176684 0.000308533 -0.0131362 0.00354509 -0.0140996
internal_weight=0 53320 255052 5399 47921 145630 109422 5032 2591 2113 1544 18509 99594 78624 1297 924 29412 46036 17212 24029 12635 5223 7412 1187 2441 2104 40632 694 74350 6189
internal_count=231342 37480 193862 3660 33820 104751 89111 3400 1731 1423 1088 13016 72155 56905 936 656 20804 32596 12080 17192 9103 3914 5189 832 1669 1469 29294 510 58258 4307
is_linear=0
shrinkage=0.05


Tree=18
num_leaves=31
num_cat=0
split_feature=11 24 24 44 11 23 11 11 11 43 41 43 43 8 40 20 40 35 53 41 38 36 41 5 11 34 31 40 34 44
split_gain=1712.88 599.786 386.665 198.205 126.898 121.241 79.2069 73.4983 72.3999 48.6206 41.5185 43.2057 36.7948 45.0789 63.4069 36.4543 29.4179 29.5392 28.4402 27.0719 28.9103 26.9259 39.2939 26.8701 25.9901 24.273 23.533 23.2673 22.4049 20.3577
threshold=0.80266568064689647 1.1972727179527285 4.8551387786865243 -3.7576558589935298 0.2716460675001145 -0.59999868273735035 0.56979471445083629 1.8257408738136294 1.1416402459144595 0.90263232588768016 2.1909490823745732 0.80157965421676647 0.85381004214286815 -0.0088060405105352384 0.003850326058454812 -0.75599148869514454 -0.005845968145877122 0.91597560048103344 0.76115086674690258 0.66627147793769848 0.0037748637842014436 -0.7865660786628722 1.3733705878257754 0.95318090915679943 0.14540981501340869 1.0000000180025095e-35 1.0571721792221072 -0.01075264113023877 1.0000000180025095e-35 -1.1434480547904966
decision_type=2 2 2 2 2 2 2 2 2 2 2 2 2 2 2 2 2 2 2 2 2 2 2 2 2 2 2 2 2 2
left_child=1 4 8 5 24 -4 15 10 16 12 11 -5 13 -9 -15 25 17 27 -6 28 -21 22 -17 -24 -1 -3 -8 -2 -10 -29
right_child=2 6 3 7 18 -7 26 9 19 -11 -12 -13 -14 14 -16 21 -18 -19 -20 20 -22 -23 23 -25 -26 -27 -28 29 -30 -31
leaf_value=0.0070496397887638076 -0.0059866032584940249 -0.0047368283705887318 -0.074415283978608471 -0.019108670200185904 0.0015446179148326912 -0.02580932991707717 -0.0044357699266073638 -0.01206718452354627 -0.01451096076786805 -0.011181983684648934 -0.029352582103767191 -0.0059170067152379234 -0.045178632139736281 -0.049762024357090748 -0.019945909832701753 -0.00027184240881557141 -0.0054229425417329329 -0.0215597726584556 0.0035958000583696604 -0.014652793210022667 -0.032407078361299274 0.00091001946991894369 -0.0052298257339720112 -0.020117366068384233 0.0044891287382864921 -0.00068601535677790192 -0.0021209705542199341 -0.018118885920833726 -0.0087130363915688871 -0.0085439987856984548
leaf_weight=11942 3621 6689 280 1185 65285 239 17734 349 2567 366 411 1305 373 338 381 9154 15693 466 22802 1119 289 40651 2232 350 58361 8270 28836 932 4772 1380
leaf_count=10915 2258 4638 210 936 49115 191 12251 235 1701 211 267 764 203 261 243 6653 11736 280 16284 815 171 28890 1709 247 48334 6097 20719 668 3397 943
internal_value=0 0.00134994 -0.0102455 -0.0228197 0.00334 -0.0521249 -0.00141707 -0.0195788 -0.00811363 -0.027496 -0.0146395 -0.0122001 -0.031629 -0.0268589 -0.034012 -0.000320689 -0.00658868 -0.00944626 0.00207562 -0.011964 -0.0183174 0.000300947 -0.00180865 -0.0072549 0.00492416 -0.00249755 -0.00300253 -0.00849135 -0.0107427 -0.0124099
internal_weight=0 272306 36066 5227 158390 519 113916 4708 30839 1807 2901 2490 1441 1068 719 67346 22092 6399 88087 8747 1408 52387 11736 2582 70303 14959 46570 5933 7339 2312
internal_count=231342 205852 25490 3521 124648 401 81204 3120 21969 1153 1967 1700 942 739 504 48234 15885 4149 65399 6084 986 37499 8609 1956 59249 10735 32970 3869 5098 1611
is_linear=0
shrinkage=0.05


Tree=19
num_leaves=31
num_cat=0
split_feature=24 11 11 39 11 11 39 5 13 20 39 11 9 41 20 52 41 20 34 34 39 22 36 7 20 52 53 20 58 20
split_gain=1557.03 456.912 420.786 168.778 95.704 88.2265 59.3167 69.8426 60.2926 79.9663 62.1233 51.9355 41.6755 38.7379 34.0505 31.4694 28.2332 28.11 29.3626 27.9921 26.2697 25.9815 25.6718 24.4561 24.3578 23.8247 22.3036 22.1857 20.6298 19.5358
threshold=2.1159032583236699 1.3443224430084231 0.33258831501007086 -0.016992943361401554 0.46666093170642858 0.90123322606086742 -0.0090045379474759085 1.7708408832550051 41.143058776855476 5.0041270256042489 -0.0025497268652543421 0.2052039057016373 -0.02797447424381971 0.53824603557586681 -2.8505175113677974 0.050641026347875602 -0.64765375852584828 -0.73626154661178578 1.0000000180025095e-35 1.0000000180025095e-35 0.01087041385471821 3.2207516431808476 -0.6035533845424651 -0.0020795704331248994 -1.7618861794471739 0.97717949748039257 8.2488765716552752 -0.073983289301395402 0.0061107084620743999 -0.23831975460052487
decision_type=2 2 2 2 2 2 2 2 2 2 2 2 2 2 2 2 2 2 2 2 2 2 2 2 2 2 2 2 2 2
left_child=2 5 11 -3 27 21 12 14 10 16 -9 -1 -5 -7 25 -6 -10 18 -17 22 -21 24 -16 -20 -2 -8 -19 -4 -23 -13
right_child=1 3 4 6 15 13 7 8 9 -11 -12 29 -14 -15 19 17 -18 26 23 20 -22 28 -24 -25 -26 -27 -28 -29 -30 -31
leaf_value=0.0055474371880723378 -0.0069312464747152136 -0.056645578635497053 0.00013188440598589871 0.0075181403391163908 -0.0045431566126463846 -0.0074066309692902973 -0.030643752051083557 -0.02374350602650039 -0.02605460078659896 -0.037434353483489384 -0.05569019652240053 0.0019240055177964248 -0.01433517410436512 -0.013086358673113844 -0.030091451296111113 -0.0052799976692657919 -0.0092203739862537111 -0.00078203111870419131 -0.0037232601256687496 -0.012128813299092876 0.0030622558088641153 -0.0076431584460023051 -0.014135517303894236 0.00096638184970524756 -0.0031518598946822154 -0.013732255975510059 0.0029372239242512355 0.0018999552352151332 -0.022119660070308193 0.003722767633728646
leaf_weight=35072 5255 284 30962 369 7257 11972 540 312 351 529 301 21066 531 4010 384 7017 859 43175 5078 2051 330 1253 742 6141 22598 343 4445 41555 306 53284
leaf_count=30853 3529 154 22729 222 5264 8453 376 212 238 378 206 16865 304 2824 237 4808 572 31308 3636 1537 200 873 518 4227 16208 245 2628 30151 194 41393
internal_value=0 -0.00777645 0.00161846 -0.0188526 -0.000141949 -0.00584214 -0.0174409 -0.0190503 -0.0260056 -0.0212304 -0.0394954 0.00396138 -0.00537692 -0.00883245 -0.0153188 -0.00141847 -0.0141212 -0.00107409 -0.00274332 -0.0131022 -0.010023 -0.00421701 -0.0195988 -0.00115641 -0.00386514 -0.0240975 -0.00043481 0.00114507 -0.010497 0.00321315
internal_weight=0 53320 255052 7926 145630 45394 7642 6742 2352 1739 613 109422 900 15982 4390 73113 1210 65856 18236 3507 2381 29412 1126 11219 27853 883 47620 72517 1559 74350
internal_count=231342 37480 193862 5399 104751 32081 5245 4719 1606 1188 418 89111 526 11277 3113 51871 810 46607 12671 2492 1737 20804 755 7863 19737 621 33936 52880 1067 58258
is_linear=0
shrinkage=0.05


Tree=20
num_leaves=31
num_cat=0
split_feature=11 11 11 36 11 11 11 37 15 13 39 11 5 40 41 52 5 24 5 52 43 40 43 40 52 37 36 21 52 36
split_gain=1445.56 558.562 281.615 214.127 82.866 76.3124 59.4029 58.1309 74.7633 72.0137 39.4405 34.358 28.3619 26.9868 26.1647 26.4875 23.0326 22.9421 20.6664 20.9186 20.4 19.9537 19.2953 19.2185 18.6512 18.3503 18.2609 17.2903 17.0903 17.05
threshold=0.59045937657356273 1.2300519347190859 0.31194600462913519 -0.98296290636062611 0.85928666591644298 1.8257408738136294 0.43884353339672094 2.5000000000000004 -1.7533712983131406 64.167800903320327 -0.0050663903821259728 0.18605908006429675 0.95318090915679943 0.010750379413366319 0.64413461089134227 0.85500001907348644 0.77948457002639782 2.7647337913513188 0.97248905897140514 0.4316666722297669 0.95289021730422985 0.013500708620995285 0.85952574014663707 -0.0024589366512373085 0.050641026347875602 1.5000000000000002 -0.12940952181816107 0.67891719937324535 0.85500001907348644 1.0000000180025095e-35
decision_type=2 2 2 2 2 2 2 2 2 2 2 2 2 2 2 2 2 2 2 2 2 2 2 2 2 2 2 2 2 2
left_child=2 4 11 -3 12 14 18 10 -9 -10 -7 -1 20 17 15 23 24 -6 19 -4 -2 25 27 -5 -8 -16 -27 -12 -20 -19
right_child=1 3 6 5 13 7 16 8 9 -11 22 -13 -14 -15 21 -17 -18 29 28 -21 -22 -23 -24 -25 -26 26 -28 -29 -30 -31
leaf_value=0.0055812616319935856 -0.0029239760692949036 -0.054092548461267147 0.00069572541843733991 -0.019125265900365777 -0.0058429347564778423 -0.00034557793313557875 -0.0030145362522024043 -0.0503353304941066 -0.011860149084383168 -0.041088910838423753 -0.015884434228245686 0.0034651604635107616 -0.0058524744765415691 -0.00275124580313832 -0.02272973421793793 -0.0072491206337733181 -0.0035158546656451788 -0.0075602406636071026 -0.00011847899177953143 0.0023814844089693459 0.001137320019491484 -0.029449253426352091 -0.012172051466102058 -0.01125424870178748 -9.1467098806334293e-06 -0.017908494119866603 -0.0019787614974078214 -0.032974320810638079 -0.01479126189535071 -0.012079230788069365
leaf_weight=26435 37419 367 37337 1199 7666 327 5799 342 563 337 256 69954 7953 3134 514 2507 6399 4581 455 36290 3370 326 440 2217 46953 378 343 361 351 3848
leaf_count=23557 26940 241 26978 753 5579 215 4222 196 382 212 194 55728 5654 1970 360 1777 4451 3253 285 27121 2026 215 306 1557 33268 281 260 263 230 2831
internal_value=0 -0.00587431 0.00198579 -0.0166201 -0.00421775 -0.0152546 0.000499514 -0.0225894 -0.0304442 -0.0228382 -0.0155236 0.00404556 -0.0031211 -0.00699724 -0.0126783 -0.0111568 -0.000683244 -0.00782379 0.00143943 0.00152664 -0.00258841 -0.0184403 -0.0202144 -0.0140217 -0.000339579 -0.0155128 -0.0103435 -0.0259207 -0.00651865 -0.00962443
internal_weight=0 78448 229973 10477 67971 10110 133584 2626 1242 900 1384 96389 48742 19229 7484 5923 59151 16095 74433 73627 40789 1561 1057 3416 52752 1235 721 617 806 8429
internal_count=231305 55465 175840 7212 48253 6971 96555 1768 790 594 978 79285 34620 13633 5203 4087 41941 11663 54614 54099 28966 1116 763 2310 37490 901 541 457 515 6084
is_linear=0
shrinkage=0.05


Tree=21
num_leaves=31
num_cat=0
split_feature=24 24 24 12 40 37 24 24 12 41 43 53 49 43 31 41 54 15 41 41 37 1 49 52 15 39 41 6 18 9
split_gain=1311.53 462.296 244.411 159.094 140.634 60.3501 58.4797 52.5454 40.5557 52.3876 42.3328 38.5951 38.3344 32.6324 25.3523 25.3035 25.0816 23.8611 22.6379 36.4053 28.937 29.048 22.6224 20.6643 20.3487 23.9817 18.5383 18.2814 17.9976 17.8734
threshold=1.7719874382019045 3.7301241159439091 0.88042765855789196 0.015283014159649612 -0.011243904475122688 3.5000000000000004 2.4120306968688969 1.2978489995002749 0.0075090539176017055 2.067485094070435 0.9013446867465974 1.6161476969718935 0.89294162392616283 0.7828301489353181 0.28616803884506231 -0.57739484310150135 -1.0000000180025095e-35 -0.061905179172754281 0.6894308626651765 1.3733705878257754 1.5000000000000002 0.44959612190723425 0.86946669220924389 0.14142857491970065 0.12066767737269403 0.0035749491071328525 3.462723016738892 0.00049143962678499531 0.0062464550137519845 0.0042495469097048053
decision_type=2 2 2 2 2 2 2 2 2 2 2 2 2 2 2 2 2 2 2 2 2 2 2 2 2 2 2 2 2 2
left_child=2 6 11 5 -5 8 16 23 -3 10 18 -1 24 28 -14 -6 22 27 20 -20 -10 -22 29 -4 25 -8 -16 -9 -7 -2
right_child=1 3 7 4 15 13 12 17 9 -11 -12 -13 14 -15 26 -17 -18 -19 19 -21 21 -23 -24 -25 -26 -27 -28 -29 -30 -31
leaf_value=0.0029191579991589838 -0.0098042722344815099 -0.0096301020191250138 -0.00010933070053469026 -0.058701854517147337 -0.031467964600122522 -0.0090458730777899198 -0.015831173665480171 -0.003050874072309123 -0.010924296484636203 -0.032068794043205895 -0.0080735485417687755 0.0049261441634861347 -0.0097204160984849589 -0.00092152997427889956 -0.0040164756523686784 -0.014565711107077045 -0.0016457907373317625 0.00023700086780619768 -0.035715077452815415 -0.013163337867207844 -0.017674906767797437 -0.034985422823028488 -0.0031534904986051486 0.0017988189189418028 -0.006465291650479793 -0.0052966211686900503 -0.014029521250386061 -0.00033831023173788553 -0.023509880370959885 -0.0027378581220812502
leaf_weight=57052 2711 2471 18833 343 367 1220 1849 13826 1273 545 1322 41300 2388 1379 18948 565 22180 31298 432 308 1215 304 12104 57530 2544 765 473 11278 261 1337
leaf_count=47283 1930 1716 13871 190 267 981 1343 9800 929 356 754 32660 1670 828 13428 397 15905 22375 304 217 844 198 8484 42657 1801 519 326 8046 217 1009
internal_value=0 -0.00565052 0.00187284 -0.014668 -0.0313619 -0.0126815 -0.0039925 0.000473362 -0.0149421 -0.0173711 -0.0157146 0.00376197 -0.00577645 -0.00645799 -0.00485925 -0.021248 -0.00273735 -0.000684048 -0.0185714 -0.0263591 -0.0164987 -0.02116 -0.00423608 0.00132823 -0.00965285 -0.0127514 -0.00426105 -0.00183231 -0.011609 -0.00747158
internal_weight=0 77304 231117 12005 1275 10730 65299 132765 7870 5399 4854 98352 26967 2860 21809 932 38332 56402 3532 740 2792 1519 16152 76363 5158 2614 19421 25104 1481 4048
internal_count=231305 54613 176692 8198 854 7344 46415 96749 5318 3602 3246 79943 19087 2026 15424 664 27328 40221 2492 521 1971 1042 11423 56528 3663 1862 13754 17846 1198 2939
is_linear=0
shrinkage=0.05


Tree=22
num_leaves=31
num_cat=0
split_feature=11 11 11 36 56 11 5 11 37 35 11 31 30 11 36 40 40 31 39 37 40 5 40 43 19 39 51 35 2 31
split_gain=1188.76 459.621 233.153 192.309 68.686 67.7727 49.4811 41.9906 39.6809 34.375 32.84 32.2514 30.8476 29.2834 28.9233 49.7279 28.1375 25.6186 24.8945 24.6864 24.1087 23.3332 22.9644 22.0104 21.549 21.0544 28.2558 20.0894 18.8952 18.6383
threshold=0.59045937657356273 1.2300519347190859 0.31194600462913519 -0.98296290636062611 2.9939657449722294 0.85928666591644298 0.66971242427825939 2.2009946107864384 2.5000000000000004 0.37940952181816107 0.43884353339672094 2.6623026132583623 -1.1447785496711729 0.18856944143772128 -0.98296290636062611 0.0029661849839612846 -0.028105556033551689 1.4584500193595888 -0.010804239660501478 4.5000000000000009 0.010750379413366319 1.2492733001708987 -0.0024589366512373085 0.76829841732978832 1.9721381068229678 -0.0070602737832814446 0.33202859759330755 0.12940952181816109 0.1875061169266701 1.6114346385002138
decision_type=2 2 2 2 2 2 2 2 2 2 2 2 2 2 2 2 2 2 2 2 2 2 2 2 2 2 2 2 2 2
left_child=2 5 13 -3 7 17 10 11 -6 23 -4 16 18 -1 15 -8 -5 -2 -13 -20 24 -14 25 -9 29 -18 27 -27 -23 -7
right_child=1 3 6 4 8 20 14 9 -10 -11 -12 12 21 -15 -16 -17 22 -19 19 -21 -22 28 -24 -25 -26 26 -28 -29 -30 -31
leaf_value=0.0050537943095601548 -0.0040060488369122104 -0.050586207308736891 0.0014800515769373712 -0.0029473950904805426 -0.018087800906570112 -0.0086378865951952898 -0.0026104843112322263 -0.024212195577057102 -0.04279397896988367 -0.03330495056775739 -0.00021391115868823427 0.0073100662448966547 -0.0074841226202371231 0.0031239794763253947 -0.0017062419322175417 -0.027743830241898478 -0.012629867039219615 -0.0017127365656784761 -0.0095892422737994861 0.0023998744033617223 -0.0023249709461412751 -0.014054539154762086 -0.0098366709627249194 -0.0067492140942405927 -0.015122209708963056 -0.025239010562900038 -0.037321712545663042 -0.01162682416695667 -0.030717429332614784 -0.0051267082616677688
leaf_weight=27515 23801 367 70328 408 359 6853 588 347 300 409 48233 291 475 68874 14140 295 704 24941 3023 500 3134 365 818 377 799 663 285 463 323 8443
leaf_count=24478 16550 241 51753 208 268 4730 416 258 216 232 34279 163 349 54807 9907 200 457 18070 2120 393 1970 241 597 250 648 489 206 311 213 6285
internal_value=0 -0.00532709 0.00180072 -0.0150748 -0.0137808 -0.00382439 0.000448367 -0.0126899 -0.0293827 -0.0217214 0.000790917 -0.0114573 -0.00890314 0.00367491 -0.00225491 -0.0110291 -0.0152583 -0.00283263 -0.00672634 -0.00788749 -0.00633804 -0.0160299 -0.0169693 -0.0151408 -0.00711927 -0.0197219 -0.023249 -0.0196571 -0.0219106 -0.00670027
internal_weight=0 78448 229973 10477 10110 67971 133584 9451 659 1133 118561 8318 4977 96389 15023 883 3341 48742 3814 3523 19229 1163 2933 724 16095 2115 1411 1126 688 15296
internal_count=231305 55465 175840 7212 6971 48253 96555 6487 484 740 86032 5747 3479 79285 10523 616 2268 34620 2676 2513 13633 803 2060 508 11663 1463 1006 800 454 11015
is_linear=0
shrinkage=0.05


Tree=23
num_leaves=31
num_cat=0
split_feature=24 11 11 36 11 56 37 11 53 11 35 37 39 20 40 40 11 6 35 15 34 40 36 7 52 31 6 45 36 13
split_gain=1077.87 443.546 184.945 150.196 68.4898 67.6976 41.8804 40.8161 35.2291 33.7331 31.0303 30.5345 29.696 33.7085 30.9829 26.0028 25.2401 24.3202 21.9365 28.6202 40.4501 36.4612 20.4483 26.6312 20.9446 19.7888 19.0105 18.9949 18.2 27.452
threshold=1.6618715524673464 1.182853162288666 0.33070926368236547 -0.98296290636062611 0.79274863004684459 2.9939657449722294 2.5000000000000004 2.2009946107864384 1.4765071868896487 0.21416334062814715 0.37940952181816107 4.5000000000000009 -0.010804239660501478 -2.2197194099426265 -0.023550922051072117 0.011178286280483009 0.43884353339672094 -0.0072552133351564399 -0.37940952181816096 -0.14105877280235288 1.0000000180025095e-35 -0.0076307484414428464 -0.7865660786628722 -0.010467921849340199 0.41189655661582952 1.6114346385002138 -0.0019556941697373982 1.0000000180025095e-35 -0.7865660786628722 53.846200942993171
decision_type=2 2 2 2 2 2 2 2 2 2 2 2 2 2 2 2 2 2 2 2 2 2 2 2 2 2 2 2 2 2
left_child=2 4 9 -3 22 7 -7 11 16 -1 26 12 25 14 -14 18 -4 -16 -6 20 21 -20 -2 -24 -25 -5 -9 -13 29 -15
right_child=1 3 8 5 15 6 -8 10 -10 -11 -12 27 13 28 17 -17 -18 -19 19 -21 -22 -23 23 24 -26 -27 -28 -29 -30 -31
leaf_value=0.0044952765169890309 -0.0039821460480929981 -0.043315114487066042 0.00084911200876563921 -0.0096688400165981844 -0.004392437224349211 -0.016495878237425609 -0.041287197103845846 -0.0057502763013319927 0.002334289610785998 0.0026598420202479925 -0.031643764404579999 -0.0076283502638516193 -0.0065886939852388389 -0.0063561048752597262 -0.033988784328683373 -0.0015063349043212225 -0.00080093617517908362 -0.018466419392988379 -0.028145878535215163 -0.0050804512472188736 -0.0072887487468909487 -0.012031837274001582 -0.0054048013674317767 -0.0028284885874045938 -0.00027332741918500118 0.0045780245418292152 -0.021997138837400777 0.0059296530915391391 -0.0092243142881958222 -0.021799762660915586
leaf_weight=39470 13023 413 46367 562 9530 376 314 340 20081 68462 409 739 422 457 328 3510 46335 1120 479 5525 3952 1320 4289 12788 21508 429 384 396 4312 781
leaf_count=34501 9259 275 34423 339 6999 282 230 237 13601 53516 232 671 234 308 253 2250 33263 819 289 4168 2701 1000 2941 9003 15266 246 271 209 3010 509
internal_value=0 -0.00470072 0.00185157 -0.0137265 -0.00329992 -0.0126479 -0.0278211 -0.0116651 0.00043567 0.00333108 -0.0206382 -0.010598 -0.0116367 -0.0127224 -0.0185303 -0.00548769 2.4373e-05 -0.0220036 -0.00615924 -0.00765195 -0.0101211 -0.0163356 -0.00226903 -0.00169075 -0.00122613 -0.00350303 -0.0143859 -0.00289693 -0.0107626 -0.0161086
internal_weight=0 87706 220715 11782 75924 11369 690 10679 112783 107932 1133 9546 8411 7420 1870 24316 92702 1448 20806 11276 5751 1799 51608 38585 34296 991 724 1135 5550 1238
internal_count=231305 62001 169304 8125 53876 7850 512 7338 81287 88017 740 6598 5718 5133 1306 17407 67686 1072 15157 8158 3990 1289 36469 27210 24269 585 508 880 3827 817
is_linear=0
shrinkage=0.05


Tree=24
num_leaves=31
num_cat=0
split_feature=24 11 11 21 11 11 11 39 54 35 9 41 44 53 31 8 30 5 43 23 41 37 41 43 20 8 24 37 34 20
split_gain=977.677 296.444 273.117 158.112 61.7674 51.0797 43.0152 38.9647 36.4676 36.3178 31.5962 28.8289 27.2146 27.0895 25.7987 47.5209 39.3965 37.466 26.3541 25.4705 24.3894 23.4029 47.7116 22.4665 19.4811 18.4189 16.4555 15.917 17.9294 15.3957
threshold=2.1381676197052006 1.3443224430084231 0.40029704570770269 2.2534338235855107 0.24635294079780581 0.93503233790397655 2.2009946107864384 -0.0090045379474759085 -1.0000000180025095e-35 0.37940952181816107 0.027821422554552559 0.49941323697566992 -1.6533939242362974 6.1101179122924814 2.7785110473632817 -0.0071424765046685925 -0.75884225964546193 1.4033919572830202 0.79895064234733593 0.3896526843309403 3.462723016738892 1.0000000180025095e-35 1.221328139305115 0.88038283586502086 -0.20554530620574948 -0.022199343889951702 2.6739313602447514 3.5000000000000004 1.0000000180025095e-35 -0.18293623626232144
decision_type=2 2 2 2 2 2 2 2 2 2 2 2 2 2 2 2 2 2 2 2 2 2 2 2 2 2 2 2 2 2
left_child=2 5 4 6 29 12 7 -3 19 10 -8 25 -2 -10 15 -9 -16 -17 -18 27 23 22 -13 -14 -6 -7 -22 28 -4 -1
right_child=1 3 8 -5 24 11 9 14 13 -11 -12 21 20 -15 16 17 18 -19 -20 -21 26 -23 -24 -25 -26 -27 -28 -29 -30 -31
leaf_value=0.002443542669791101 -0.0080553659772376052 -0.0018011354304826293 -0.006267759667328148 -0.045813686501441186 0.00083116279333816673 -0.015521118573016371 -0.0080956097252423663 -0.010458463378088284 -0.00044474849097639362 -0.032824424129887286 -0.028153450767067857 -0.032507364822079179 -0.0037295931227608148 0.002489310859910639 -0.0086469792300594601 -0.018690121179274877 -0.034036484233391805 -0.040642202913110693 -0.012405063269724107 -0.00018235805594949209 -0.0036931357042427715 -0.0090793090154224886 -0.0061128172013143614 -0.0005680045496936685 0.0023545332719259633 -0.0053742631867334566 -0.017741544836302071 -0.0013216551995579315 -0.0024885938587131114 0.0043947408722996911
leaf_weight=13217 2982 840 5981 400 31621 468 533 907 66970 475 311 343 18256 8913 2984 517 277 314 289 10655 381 2905 342 8118 62411 9795 461 7085 6607 43063
leaf_count=11411 2214 490 4132 285 24328 334 387 649 49050 271 206 230 13448 5463 2117 349 224 204 180 7550 259 2048 251 5118 46539 6900 310 4853 4745 36760
internal_value=0 -0.00626981 0.00125503 -0.0152228 0.00262644 -0.00467467 -0.0135737 -0.0118071 -0.00068582 -0.0217662 -0.0155112 -0.00718849 -0.00352129 -0.000100094 -0.0133959 -0.0183899 -0.0109465 -0.0270238 -0.0230328 -0.0021513 -0.00302422 -0.0110453 -0.0193575 -0.0027565 0.00184227 -0.00583843 -0.0113966 -0.00321763 -0.00428456 0.00393657
internal_weight=0 51898 256523 7847 150312 44051 7447 6128 106211 1319 844 13853 30198 75883 5288 1738 3550 831 566 30328 27216 3590 685 26374 94032 10263 842 19673 12588 56280
internal_count=231305 36474 194831 5362 119038 31112 5077 4213 75793 864 593 9763 21349 54513 3723 1202 2521 553 404 21280 19135 2529 481 18566 70867 7234 569 13730 8877 48171
is_linear=0
shrinkage=0.05


Tree=25
num_leaves=31
num_cat=0
split_feature=11 24 24 44 43 11 44 7 5 37 53 40 40 6 15 41 43 15 31 14 41 42 6 36 6 47 41 43 0 40
split_gain=869.214 311.997 166.113 142.449 155.852 74.5855 69.0732 51.3164 48.0718 36.6832 28.0591 26.0831 28.2339 31.5395 34.9473 24.1022 29.8668 26.6678 23.0724 23.0704 23.0701 22.6358 22.5894 19.8395 27.821 19.7386 23.424 17.7906 16.8017 16.7321
threshold=0.58635050058364879 4.2701392173767099 0.81184890866279613 -3.7576558589935298 0.83403310179710399 0.85928666591644298 5.1239583492279062 0.028366697952151302 0.49566812813282018 3.5000000000000004 18.514319419860843 -0.0034628754947334524 -0.015766851603984829 -0.0020014654146507378 -1.1553305387496946 2.539934635162354 0.9013446867465974 -2.4235833883285518 1.0571721792221072 0.037299370393157012 3.3090953826904301 -1.0000000180025095e-35 -0.0052716550417244426 -0.7865660786628722 0.00147956790169701 -0.05741602182388305 0.057404832914471633 0.76365646719932567 -0.31242935359477991 -0.011243904475122688
decision_type=2 2 2 2 2 2 2 2 2 2 2 2 2 2 2 2 2 2 2 2 2 2 2 2 2 2 2 2 2 2
left_child=2 5 10 4 -3 18 9 -8 19 15 -1 12 -7 14 -14 16 17 -5 21 -4 -10 29 -13 24 -22 26 -15 28 -11 -2
right_child=1 3 8 6 -6 11 7 -9 20 27 -12 22 13 25 -16 -17 -18 -19 -20 -21 23 -23 -24 -25 -26 -27 -28 -29 -30 -31
leaf_value=0.002714956136091861 -0.0024047746265824831 -0.016850271298844793 0.00044355072044831409 -0.02430469808568379 -0.067064062854467296 -0.0037051381616796187 -0.016346435195176316 -0.042836744961239959 -0.00063084316976269995 0.00074916903472245294 0.0046497995096083785 1.4968642264179575e-05 -0.024096617511751902 -0.0068317765993511567 -0.010553578165028617 -0.024271046788813033 -0.0046852860378490185 -0.011782858172225068 -0.0015289713379352879 0.0019382711769342306 -0.0040126237153958223 -0.0010719870274389692 -0.0054024557023365574 -0.0026992509665542288 -0.025246932758623237 -0.0029028353656670612 -0.019721370660200983 0.0020753480103296823 -0.015194894236071592 -0.0062805768362155789
leaf_weight=56364 4231 402 55739 500 251 2519 523 282 38559 271 28075 2289 680 1179 1597 380 1285 2862 31626 48086 343 5378 12074 1276 280 1573 503 768 422 8155
leaf_count=47183 2631 326 41175 281 179 1501 404 216 27762 218 22157 1657 487 792 1108 243 739 2014 22760 35453 270 3912 8857 834 208 1120 358 462 332 5796
internal_value=0 -0.00446511 0.00159695 -0.0138657 -0.0362245 -0.00342464 -0.011859 -0.0256679 0.000566121 -0.010142 0.00335832 -0.00581672 -0.00809507 -0.010093 -0.0146069 -0.0121686 -0.0111739 -0.0136518 -0.00233898 0.00113583 -0.000895894 -0.0037809 -0.00453915 -0.00627457 -0.0135813 -0.00693186 -0.0106958 -0.00316534 -0.00896782 -0.00495692
internal_weight=0 79750 228722 7946 653 71804 7293 805 144283 6488 84439 22414 8051 5532 2277 5027 4647 3362 49390 103825 40458 17764 14363 1899 623 3255 1682 1461 693 12386
internal_count=231435 56393 175042 5414 505 50979 4909 620 105702 4289 69340 15880 5366 3865 1595 3277 3034 2295 35099 76628 29074 12339 10514 1312 478 2270 1150 1012 550 8427
is_linear=0
shrinkage=0.05


Tree=26
num_leaves=31
num_cat=0
split_feature=11 11 21 11 11 15 41 44 36 38 41 20 7 7 41 20 12 52 52 35 52 18 40 37 41 23 39 16 52 19
split_gain=784.651 295.25 148.465 139.294 85.1028 38.3464 83.4524 38.2337 33.7643 31.3648 30.9976 30.6191 30.4121 30.2854 28.7151 26.502 25.3275 23.5292 22.8392 23.8352 22.8345 22.4112 21.7902 22.9285 20.2555 20.0369 19.1621 24.7711 25.1079 19.014
threshold=0.56979471445083629 1.509479343891144 2.1530414819717412 0.31390784680843359 0.85928666591644298 -2.4235833883285518 -0.49378117918968195 5.1239583492279062 -0.7865660786628722 0.0047143169213086375 0.57687070965766918 -0.20554530620574948 0.010112822521477939 -0.0015113378176465628 1.9420112967491152 -0.23831975460052487 0.0069166098255664119 0.11651583760976793 0.47111110389232641 -0.91597560048103321 0.69222220778465282 -0.00095472525572404255 0.016516688279807571 1.5000000000000002 0.82845836877822887 0.60175538063049328 -0.0079342890530824644 -0.0015149431419558821 0.75337839126586925 2.2024477720260625
decision_type=2 2 2 2 2 2 2 2 2 2 2 2 2 2 2 2 2 2 2 2 2 2 2 2 2 2 2 2 2 2
left_child=3 4 5 15 14 6 -3 26 9 20 22 25 -9 -8 18 -1 -16 -13 19 -2 -5 -21 29 -24 -22 -10 -7 -28 -29 -6
right_child=1 2 -4 8 10 7 13 12 11 -11 -12 17 -14 -15 16 -17 -18 -19 -20 21 24 -23 23 -25 -26 -27 27 28 -30 -31
leaf_value=0.001499054021211545 2.6955690558578936e-05 -0.042727087279993366 -0.04920300985516788 -0.0023989524616548448 -0.004990722501797845 -0.0013975060639450304 -0.022775075904077347 -0.011674410625952685 -0.00077350355189240421 -0.017213978455324085 -0.009068851767809312 -0.00020801081700866036 -0.034855664169289098 -0.0019061805584638472 -0.0051821234337220386 0.003450429249514754 -0.020603538957466649 0.002093863289736301 -0.0010745325177269655 -0.0075842538628583291 0.0018369406955720217 -0.0030879486788111966 -0.0072399057392836912 0.0043964094083862749 -0.0025238599812982218 0.0023774401675414202 -0.017492024016395897 -0.013476594134512116 -0.0018173951772430291 -0.012959604740697465
leaf_weight=22650 4280 329 306 13077 16330 643 341 287 30407 298 5475 14377 281 354 3713 75091 286 48725 32019 3692 9137 11118 649 1213 3757 6048 958 912 935 784
leaf_count=18839 2988 223 224 9367 11683 375 199 208 21895 204 3890 10542 209 204 2639 61493 181 34957 22710 2605 6786 7964 392 690 2898 4441 727 607 643 652
internal_value=0 -0.00406383 -0.0154372 0.00158221 -0.00329941 -0.0133778 -0.0220153 -0.0111704 0.000482218 -0.00111226 -0.0057544 0.000902943 -0.0231837 -0.0121635 -0.00221006 0.00299825 -0.00628991 0.00156942 -0.00189072 -0.00325955 -0.000926852 -0.00420927 -0.00479767 0.000338863 0.000566212 -0.000250701 -0.00918529 -0.0109694 -0.00757858 -0.00535652
internal_weight=0 84905 5346 223567 79559 5040 1024 4016 125826 26269 24451 99557 568 695 55108 97741 3999 63102 51109 19090 25971 14810 18976 1862 12894 36455 3448 2805 1847 17114
internal_count=231435 60013 3619 171422 56394 3395 626 2769 91090 19255 17307 71835 417 403 39087 80332 2820 45499 36267 13557 19051 10569 13417 1082 9684 26336 2352 1977 1250 12335
is_linear=0
shrinkage=0.05


Tree=27
num_leaves=31
num_cat=0
split_feature=24 24 44 43 24 11 44 7 11 37 37 40 35 34 41 34 39 40 41 43 43 41 20 11 52 35 39 40 35 24
split_gain=709.797 272.091 125.142 144.095 125.068 74.3324 57.0632 44.6236 32.581 32.492 27.8312 26.6766 40.9117 28.4574 25.9674 25.0952 24.2401 22.7738 22.2722 26.7971 23.2467 21.792 19.8146 18.9552 17.802 17.5462 17.3938 16.9001 33.2044 16.4209
threshold=1.6618715524673464 4.2701392173767099 -3.7576558589935298 0.76520776748657238 0.81184890866279613 0.90123322606086742 5.1239583492279062 0.028366697952151302 0.43884353339672094 3.5000000000000004 2.5000000000000004 0.0012073873658664527 0.98296290636062633 1.0000000180025095e-35 3.462723016738892 1.0000000180025095e-35 -0.0067505650222301474 -0.0045456609223037949 2.539934635162354 0.9013446867465974 0.88393577933311474 2.539934635162354 -0.20554530620574948 0.134295329451561 0.15075758099555972 -0.7865660786628722 0.0087206750176846998 -0.0087366043590009195 -0.7865660786628722 3.0487467050552373
decision_type=2 2 2 2 2 2 2 2 2 2 2 2 2 2 2 2 2 2 2 2 2 2 2 2 2 2 2 2 2 2
left_child=4 5 3 -3 23 10 9 -8 22 18 11 12 13 27 -13 16 -7 29 19 20 -4 26 -6 -1 -25 -12 -17 28 -2 -18
right_child=1 2 6 -5 8 15 7 -9 -10 -11 25 14 -14 -15 -16 21 17 -19 -20 -21 -22 -23 -24 24 -26 -27 -28 -29 -30 -31
leaf_value=0.0052364647308204091 -0.0015278116877599915 -0.0076895942405079453 -0.01104386268874411 -0.054870942582190302 0.00017463254748020262 -0.0013227158084780112 -0.014565825846784026 -0.039264818603113663 -0.00035906196339732083 -0.0026881516178917709 0.0011462540009847253 -0.0011091200981383086 -0.017964107339024423 -0.0021781681967146657 -0.016614208801436929 -0.0046089067208572761 -0.0095726449372104394 -0.0078517810012202465 -0.022640547144571442 -0.0039747201728138172 -0.024707404035143557 -0.017718380444162227 0.0017951649035563783 0.0017735664022342755 0.0033702567421358717 -0.0016662380115196292 0.0018310269420310273 -0.0048982386333471387 -0.015198350762920169 -0.021600603832130388
leaf_weight=8870 687 296 3027 357 29133 1087 523 282 53580 1500 7155 12513 543 9140 275 10284 553 4387 384 1288 347 294 53509 27341 48308 24642 1167 5155 1257 588
leaf_count=8177 455 243 2099 262 22300 599 404 216 37977 1033 4990 9274 387 6603 198 7439 337 3261 246 741 204 221 39685 21845 39374 17203 748 3808 742 364
internal_value=0 -0.00377773 -0.0125654 -0.0335285 0.00153875 -0.00289537 -0.0106989 -0.0232561 0.00060128 -0.00915136 -0.00206024 -0.00316439 -0.00447531 -0.00402319 -0.00144382 -0.00568649 -0.00814975 -0.0094917 -0.0110717 -0.0101142 -0.012456 -0.00429856 0.0012239 0.00304968 0.00279321 -0.00103335 -0.00395249 -0.00639803 -0.0103705 -0.0157846
internal_weight=0 87731 8004 653 220741 79727 7351 805 136222 6546 61367 29570 16782 16239 12788 18360 6615 5528 5046 4662 3374 11745 82642 84519 75649 31797 11451 7099 1944 1141
internal_count=231435 62077 5448 505 169358 56629 4943 620 99962 4323 43660 21467 11995 11608 9472 12969 4561 3962 3290 3044 2303 8408 61985 69396 61219 22193 8187 5005 1197 701
is_linear=0
shrinkage=0.05


Tree=28
num_leaves=31
num_cat=0
split_feature=11 11 11 36 24 35 43 38 16 52 35 15 41 40 41 24 52 37 38 47 36 19 40 40 15 53 23 43 44 47
split_gain=646.555 242.34 125.085 106.399 78.3334 40.7214 69.2552 42.8803 46.0718 37.0942 39.1678 36.5647 32.4851 32.2033 28.7496 28.1873 27.3611 26.3485 31.7695 69.2092 26.0632 25.4304 26.5803 24.5206 24.0383 23.033 21.9526 22.8567 19.121 19.0595
threshold=0.58635050058364879 1.6365495920181277 0.34781572222709661 -0.91597560048103321 3.3788861036300664 0.78656607866287243 0.83756080269813549 -0.0015572070842608807 0.01434925338253379 0.37965516746044164 -0.91597560048103321 -0.25525036454200739 3.1563507318496709 -0.0027012819191440936 -0.041783060878515237 0.60983014106750499 0.49500000476837164 3.5000000000000004 -0.0046932552941143504 -0.21362023055553434 0.98296290636062633 -0.79677900671958912 -0.015766851603984829 -0.00057679353631101538 -0.077663261443376527 17.124683380126957 0.33335325121879583 0.82232367992401134 2.1225972175598149 0.29437087476253515
decision_type=2 2 2 2 2 2 2 2 2 2 2 2 2 2 2 2 2 2 2 2 2 2 2 2 2 2 2 2 2 2
left_child=2 4 15 -3 9 7 -7 14 26 10 -2 13 16 -12 -5 -1 23 18 19 -6 -20 22 -11 24 -4 -18 29 -28 -19 -9
right_child=1 3 12 5 17 6 -8 8 -10 21 11 -13 -14 -15 -16 -17 25 28 20 -21 -22 -23 -24 -25 -26 -27 27 -29 -30 -31
leaf_value=0.0034968201887668662 -0.00018163166555552456 -0.040375477230272031 -0.003521964180908574 -0.0083987446014830956 -0.031631074279371466 -0.0080034362230970366 -0.0398085379092726 -0.01140518713210934 -0.033074790734397216 0.000128475242437209 -0.014395661453874274 -0.0038553577037020344 -0.0059677334137364195 -0.0059893681891116518 0.009671784166382584 0.0019064084194805278 0.0006544388363639871 -0.001145718361868559 -0.0065320788691619006 -0.0060736294452361818 -0.019344434169175157 -0.0011344058540606039 -0.0055833990085731268 0.00036881449340466958 -0.0002212868292727998 0.0036259406401699269 -0.012836983004030224 0.0064006866902020822 -0.0094028698597983171 -0.026069458936237629
leaf_weight=44159 4187 398 10555 604 444 339 346 712 292 2832 1852 9293 2125 2965 345 75492 45272 2616 6772 656 421 35523 7252 31947 11554 7618 339 282 957 323
leaf_count=37738 2937 277 7361 374 259 227 177 502 215 1709 1233 6567 1524 2229 234 58944 33467 1787 4748 398 300 25559 5223 22934 8045 5029 274 186 746 232
internal_value=0 -0.00385127 0.00137702 -0.0158759 -0.00321945 -0.0131432 -0.0241031 -0.0105443 -0.0147884 -0.00252661 -0.00442846 -0.00568856 0.000152332 -0.00922367 -0.00182611 0.0024934 0.000273991 -0.00695017 -0.00849666 -0.0164089 -0.00728456 -0.00176353 -0.00397942 -0.000517083 -0.00179714 0.0010825 -0.0115459 -0.00410479 -0.00335934 -0.0160023
internal_weight=0 79750 228722 3980 75770 3582 685 2897 1948 63904 18297 14110 109071 4817 949 119651 106946 11866 8293 1100 7193 45607 10084 54056 22109 52890 1656 621 3573 1035
internal_count=231435 56393 175042 2698 53695 2421 404 2017 1409 45457 12966 10029 78360 3462 608 96682 76836 8238 5705 657 5048 32491 6932 38340 15406 38496 1194 460 2533 734
is_linear=0
shrinkage=0.05


Tree=29
num_leaves=31
num_cat=0
split_feature=24 11 24 18 7 11 53 44 41 18 37 41 52 40 35 47 24 12 38 52 53 31 40 38 44 43 58 6 11 52
split_gain=587.431 187.535 170.857 84.996 126.819 56.3252 45.3639 39.4693 37.8235 35.5611 29.3263 38.7739 27.5179 26.7017 32.7934 26.8887 23.9188 22.8685 22.7909 22.6885 22.0522 23.4479 34.0484 33.5442 24.5177 20.9729 19.5921 19.4273 19.0781 18.5858
threshold=2.1381676197052006 1.8257408738136294 1.1183662414550783 -0.0045494080986827603 -0.0095937587320804579 1.1416402459144595 18.514319419860843 5.1239583492279062 2.067485094070435 -0.00020862930978182701 2.5000000000000004 3.3090953826904301 0.70483869314193737 -0.003393576829694211 0.98296290636062633 -0.063753113150596605 2.7647337913513188 0.0087653747759759443 -0.0005869752203579991 0.73342105746269237 2.1250643730163579 1.6114346385002138 -0.015766851603984829 -0.0018759056110866366 1.7224417924880984 0.8921942710876466 0.0075105160940438518 0.0018416571547277274 0.29667235910892492 0.10435571894049646
decision_type=2 2 2 2 2 2 2 2 2 2 2 2 2 2 2 2 2 2 2 2 2 2 2 2 2 2 2 2 2 2
left_child=2 5 6 4 -3 10 28 -5 20 12 11 13 18 14 15 26 -13 -10 -4 -17 21 22 -7 -24 -23 -11 -2 -26 -1 -30
right_child=1 3 9 7 -6 8 -8 -9 17 25 -12 16 -14 -15 -16 19 -18 -19 -20 -21 -22 24 23 -25 27 -27 -28 -29 29 -31
leaf_value=0.0022707742599012977 -0.0079195450648145201 -0.053906665110885647 -0.0042686796659313518 -0.008023506249291561 -0.013296176563860266 -0.0036692287987973408 0.0036504737659220619 -0.025076154388201429 -0.0096239970355251874 -0.00018567843912384744 -0.0018945006663053758 -0.0070889793542190677 5.7091067715957115e-05 -0.002675397592915837 -0.022891040715756414 -0.0070798661637809946 -0.026436384629639199 -0.029571060503331938 -0.0013867369287018062 0.0004186583322827035 0.0018669274187413977 -0.0036325814721863978 -0.027567051829719354 -0.011008689546828841 -0.0054043542677881104 0.001981841036634637 -0.020666290084915707 -0.014283974872184454 -0.00066761481612465621 0.0014874949382180614
leaf_weight=55211 2905 350 10808 1458 427 795 36918 442 282 49878 19613 322 17603 11242 293 1916 318 295 18782 2129 699 4315 466 894 1224 14376 336 1243 13392 39540
leaf_count=47108 1930 215 7509 994 273 467 28220 315 202 37064 13643 217 12912 8409 194 1308 208 214 13313 1512 389 2958 326 693 913 9235 236 928 9964 29566
internal_value=0 -0.00482367 0.00100609 -0.0177099 -0.031635 -0.00412342 0.00213717 -0.0120016 -0.0074295 -0.000466143 -0.00325912 -0.00463424 -0.00150829 -0.00422211 -0.00651571 -0.00585414 -0.0167285 -0.0198558 -0.0024395 -0.00313405 -0.00668344 -0.00735233 -0.0118958 -0.0166984 -0.00590709 0.000299299 -0.00924699 -0.00988233 0.00162052 0.000942242
internal_weight=0 51964 256508 2677 777 49287 145061 1900 10213 111447 39074 19461 47193 18821 7579 7286 640 577 29590 4045 9636 8937 2155 1360 6782 64254 3241 2467 108143 52932
internal_count=231435 36544 194891 1797 488 34747 114858 1309 7090 80033 27657 14014 33734 13589 5180 4986 425 416 20822 2820 6674 6285 1486 1019 4799 46299 2166 1841 86638 39530
is_linear=0
shrinkage=0.05


Tree=30
num_leaves=31
num_cat=0
split_feature=11 11 11 5 35 5 47 41 12 11 36 52 36 34 35 15 31 36 12 15 40 41 45 20 30 49 52 30 20 36
split_gain=587.198 184.665 138.685 72.5372 84.0869 59.4052 33.1117 49.7469 69.1877 31.1109 28.032 27.6079 25.5156 25.336 25.9112 40.9918 25.7735 29.1955 25.6661 22.7733 21.1979 21.0335 20.4786 19.8242 19.6392 18.8434 17.6865 16.2579 15.9841 15.8473
threshold=0.69643104076385509 1.8257408738136294 0.37847529351711279 2.2017407417297368 1.0000000180025095e-35 1.2492733001708987 0.013844690751284363 0.64413461089134227 0.0097123151645064371 0.22090243548154834 -0.7865660786628722 0.45499999821186071 -0.37940952181816096 1.0000000180025095e-35 -0.91597560048103321 -0.39845232665538782 0.57849735021591198 0.98296290636062633 0.0051203903276473292 -2.4235833883285518 -0.0094686183147132379 3.3090953826904301 1.0000000180025095e-35 -1.1060768961906431 -0.39044801890850062 1.5642505884170534 0.65500000119209301 -2.2765960693359371 -0.62146252393722523 -0.91597560048103321
decision_type=2 2 2 2 2 2 2 2 2 2 2 2 2 2 2 2 2 2 2 2 2 2 2 2 2 2 2 2 2 2
left_child=2 5 9 19 -5 13 7 -7 12 -1 21 23 -9 14 -2 18 -15 -18 -16 -3 -20 26 -19 -12 -8 -14 -4 -21 -11 -30
right_child=1 3 10 4 -6 6 24 8 -10 28 11 -13 25 16 15 -17 17 22 20 27 -22 -23 -24 -25 -26 -27 -28 -29 29 -31
leaf_value=0.0032085186023578247 -0.0007074559805166741 -0.022217302859075711 -0.0031074438310652332 -0.014006411146621779 -0.042052038620682797 -0.0063338516053335243 -0.0031329768024298725 -0.0049173191792737598 -0.033967267462880722 -0.00015552041215801803 -0.003751886307989226 0.00099561170388769681 -0.012045311488409621 -0.0065200256730206995 -0.0056533865355614249 -0.0039420331037985697 -0.00123138411567023 -0.0050197863755271736 -0.024413815835025166 -0.0045541861494251224 -0.011544599457439665 -0.011115707576795647 -0.019288902438711376 -0.0003679121296316944 -0.012707056139497259 -0.027229391455656671 -0.00037934710789611439 -0.017577647479458312 -2.0352175643151337e-05 0.0020831467661654867
leaf_weight=42847 2956 347 10120 553 519 3290 3988 779 433 11571 4851 47496 602 3126 1628 7990 20884 860 399 968 1629 582 355 40074 618 311 14386 318 10195 73546
leaf_count=37294 2117 220 7101 379 311 2276 2779 531 296 9246 3315 33809 408 2222 1175 5669 15054 617 244 694 1274 444 200 28511 452 212 10513 214 7821 55880
internal_value=0 -0.0047875 0.0010155 -0.0175087 -0.027611 -0.00409685 -0.00753782 -0.0101885 -0.0161506 0.00208947 -0.000247198 0.000155162 -0.0115738 -0.00323089 -0.0048884 -0.00594946 -0.00227125 -0.00166997 -0.0103343 -0.0108641 -0.0140873 -0.00172939 -0.00920139 -0.000733389 -0.00442004 -0.0172417 -0.00150602 -0.00778576 0.00158637 0.00182706
internal_weight=0 52553 255668 2705 1072 49848 10021 5415 2125 138159 117509 92421 1692 39827 14602 11646 25225 22099 3656 1633 2028 25088 1215 44925 4606 913 24506 1286 95312 83741
internal_count=231278 37344 193934 1818 690 35526 6954 3723 1447 110241 83693 65635 1151 28572 10479 8362 18093 15871 2693 1128 1518 18058 817 31826 3231 620 17614 908 72947 63701
is_linear=0
shrinkage=0.05


Tree=31
num_leaves=31
num_cat=0
split_feature=11 11 11 40 11 56 41 53 47 38 16 53 39 19 56 40 41 30 36 34 14 8 41 55 30 40 37 36 51 43
split_gain=529.996 166.704 125.823 69.0921 56.3716 46.6242 43.3856 32.6025 27.8146 70.269 27.0289 25.4844 25.3517 43.376 32.4178 22.9583 30.7261 20.8884 20.6666 21.7034 24.1383 22.856 20.3736 18.5267 18.0516 17.1412 18.0359 17.0435 16.0805 16.5973
threshold=0.69643104076385509 1.8257408738136294 0.40029704570770269 -0.023550922051072117 0.99510070681571972 2.9939657449722294 0.55758032202720653 0.79957276582717907 -0.069605428725481019 -0.0046932552941143504 -0.0091243903152644617 8.2488765716552752 -0.0079342890530824644 -0.53955277800559986 -1.0240932106971739 0.016516688279807571 -0.67624109983444203 -0.88233202695846547 0.98296290636062633 1.0000000180025095e-35 -0.16476754099130628 -0.0033170303795486684 0.82845836877822887 1.5000000000000002 -0.98382920026779164 0.0021763007389381532 2.5000000000000004 -0.7865660786628722 1.2416749596595766 0.88159397244453441
decision_type=2 2 2 2 2 2 2 2 2 2 2 2 2 2 2 2 2 2 2 2 2 2 2 2 2 2 2 2 2 2
left_child=2 4 7 -3 28 12 15 -1 9 -8 -10 22 -5 14 -14 18 -17 25 19 20 21 -6 -4 -12 -18 26 -11 -24 29 -2
right_child=1 3 11 5 6 -7 8 -9 10 17 23 -13 13 -15 -16 16 24 -19 -20 -21 -22 -23 27 -25 -26 -27 -28 -29 -30 -31
